<?xml version="1.0" encoding="UTF-8" standalone="no" ?>
<PMML version="4.3" xmlns="http://www.dmg.org/PMML-4_3" xmlns:xsi="http://www.w3.org/2001/XMLSchema-instance" xsi:schemaLocation="http://www.dmg.org/PMML-4_3 pmml-4-3.xsd">
	<Header copyright="Copyright (c) IBM Corp. 1989, 2024.">
		  <Application name="IBM SPSS Statistics" version="30.0.0.0"/>
	</Header>
	<DataDictionary numberOfFields="2">
		  <DataField dataType="double" displayName="" name="x" optype="continuous"/>
		  <DataField dataType="double" displayName="" name="y" optype="continuous"/>
	</DataDictionary>
	<TransformationDictionary>
		  <DerivedField dataType="double" name="$c1" optype="continuous">
			  <NormContinuous field="x">
				    <LinearNorm norm="-2.0576232877894904405" orig="-103.82796478271484375"/>
				    <LinearNorm norm="2.093442314797822057" orig="105.85543060302734375"/>
			</NormContinuous>
		</DerivedField>
		  <DerivedField dataType="double" name="$c2" optype="continuous">
			  <NormContinuous field="y">
				    <LinearNorm norm="-2.202091406172336896" orig="-103.08837890625"/>
				    <LinearNorm norm="2.1002938810175755258" orig="98.402473449707045461"/>
			</NormContinuous>
		</DerivedField>
	</TransformationDictionary>
	<ClusteringModel algorithmName="TwoStep" functionName="clustering" modelClass="distributionBased" numberOfClusters="10" x-handleNoise="True" x-volume="0.361324858748268">
		  <MiningSchema>
			  <MiningField importance="1" name="x">
        <Extension extender="spss" name="Importance">
          <Importance dataUsage="training" value="1"/>
        </Extension>
      </MiningField>
			  <MiningField importance="1" name="y">
        <Extension extender="spss" name="Importance">
          <Importance dataUsage="training" value="1"/>
        </Extension>
      </MiningField>
		  </MiningSchema>
		  <Output>
			  <OutputField dataType="integer" feature="entityId" name="TSC_307" optype="categorical"/>
		</Output>
		  <ModelStats>
			  <UnivariateStats field="x">
				    <NumericInfo maximum="105.85543060302734375" mean="0.10906698559951377714" minimum="-103.82796478271484375" standardDeviation="50.513149022518192055"/>
			</UnivariateStats>
			  <UnivariateStats field="y">
				    <NumericInfo maximum="98.402473449707045461" mean="0.040756393762639807343" minimum="-103.08837890625" standardDeviation="46.832359006963805825"/>
			</UnivariateStats>
		</ModelStats>
		  <ComparisonMeasure kind="distance">
			  <squaredEuclidean/>
		</ComparisonMeasure>
		  <ClusteringField field="$c1" isCenterField="true"/>
		  <ClusteringField field="$c2" isCenterField="true"/>
		  <Cluster name="1" size="8796">
			  <Array n="2" type="real">-0.92296549240573377837 -0.80821280406121687179 </Array>
			  <Covariances>
				    <Matrix kind="diagonal">
					    <Array n="2" type="real">0.12066642104466739072 0.17232234133305746049 </Array>
				</Matrix>
			</Covariances>
		</Cluster>
		  <Cluster name="2" size="9251">
			  <Array n="2" type="real">0.037063249320968771894 -1.3835195425209811937 </Array>
			  <Covariances>
				    <Matrix kind="diagonal">
					    <Array n="2" type="real">0.13749625932461373434 0.14588711523023514816 </Array>
				</Matrix>
			</Covariances>
		</Cluster>
		  <Cluster name="3" size="5499">
			  <Array n="2" type="real">-0.24188158582709479161 0.25785027930586540412 </Array>
			  <Covariances>
				    <Matrix kind="diagonal">
					    <Array n="2" type="real">0.091511356512002248187 0.051238915395026139732 </Array>
				</Matrix>
			</Covariances>
		</Cluster>
		  <Cluster name="4" size="5768">
			  <Array n="2" type="real">-0.58662883633602558309 1.3807267126081430586 </Array>
			  <Covariances>
				    <Matrix kind="diagonal">
					    <Array n="2" type="real">0.043405679441593778001 0.13945577039938705788 </Array>
				</Matrix>
			</Covariances>
		</Cluster>
		  <Cluster name="5" size="4782">
			  <Array n="2" type="real">-1.4539107591685271892 0.67691766622248783492 </Array>
			  <Covariances>
				    <Matrix kind="diagonal">
					    <Array n="2" type="real">0.039924629437712050306 0.13569365564218763276 </Array>
				</Matrix>
			</Covariances>
		</Cluster>
		  <Cluster name="6" size="2120">
			  <Array n="2" type="real">-1.7422568913482776587 -0.099090626332802050902 </Array>
			  <Covariances>
				    <Matrix kind="diagonal">
					    <Array n="2" type="real">0.035347029788164306685 0.031975463337215057069 </Array>
				</Matrix>
			</Covariances>
		</Cluster>
		  <Cluster name="7" size="5907">
			  <Array n="2" type="real">1.4941352440091175691 0.69614433380030216192 </Array>
			  <Covariances>
				    <Matrix kind="diagonal">
					    <Array n="2" type="real">0.064619418382894477926 0.091812174743583163661 </Array>
				</Matrix>
			</Covariances>
		</Cluster>
		  <Cluster name="8" size="5965">
			  <Array n="2" type="real">0.40408571242436919224 1.2771468810843453756 </Array>
			  <Covariances>
				    <Matrix kind="diagonal">
					    <Array n="2" type="real">0.061199396772320391324 0.095356803125872274807 </Array>
				</Matrix>
			</Covariances>
		</Cluster>
		  <Cluster name="9" size="5393">
			  <Array n="2" type="real">0.63740932312229214851 -0.020584242467354824102 </Array>
			  <Covariances>
				    <Matrix kind="diagonal">
					    <Array n="2" type="real">0.035072257044454366315 0.12956807542097967256 </Array>
				</Matrix>
			</Covariances>
		</Cluster>
		  <Cluster name="10" size="5928">
			  <Array n="2" type="real">1.420780353661697637 -0.68905440096705228292 </Array>
			  <Covariances>
				    <Matrix kind="diagonal">
					    <Array n="2" type="real">0.093185483556209647293 0.091190491967212350399 </Array>
				</Matrix>
			</Covariances>
		</Cluster>
		  <Extension extender="spss.com">
			  <X-ClusteringModel criterion="BIC" distanceMeasure="Euclidean" handleNoise="true" initThreshold="0" maxBranch="8" maxLevel="3" maxMemory="64" noiseDefinition="0.05" noiseVolume="0.361324858748268">
				    <X-OutlierCluster>
					    <Cluster name="-1" size="591">
						      <Array n="2" type="real">0.066561088165664250571 -0.060067378613262598086 </Array>
						      <Covariances>
							      <Matrix kind="diagonal">
								        <Array n="2" type="real">0.81601419992595891628 0.92083142699597309022 </Array>
							</Matrix>
						</Covariances>
					</Cluster>
				</X-OutlierCluster>
			</X-ClusteringModel>
		</Extension>
	</ClusteringModel>
	<Extension extender="spss.com" name="DataDictionaryFieldProperties">
		  <FieldFormats>
			  <NumberFormat alignment="auto" decimalPlaces="19" decimalSymbol="local" formatType="standard" groupingSymbol="local" name="F23.19" width="23"/>
			  <NumberFormat alignment="auto" decimalPlaces="19" decimalSymbol="local" formatType="standard" groupingSymbol="local" name="F23.19" width="23"/>
		</FieldFormats>
		  <FieldExtensions>
			  <FieldExtension formatName="F23.19" name="x"/>
			  <FieldExtension formatName="F23.19" name="y"/>
		</FieldExtensions>
	</Extension>
  <Extension extender="spss" name="ModelExplanation">
    <ModelExplanation>
      <Extension extender="spss" name="ModelProfiles">
        <ModelProfiles dataName="" dataUsage="training" targetField="TSC_307">
          <ClusteringModelProfile>
            <ModelStats>
              <UnivariateStats field="x">
                <Counts missingFreq="0" totalFreq="51946"/>
                <NumericInfo interQuartileRange="74.5736460303619" maximum="104.745986938477" mean="1.29198987327385" median="2.01211926132622" minimum="-103.827964782715" standardDeviation="51.1367310955665">
                  <Quantile quantileLimit="25" quantileValue="-35.8204978377788"/>
                  <Quantile quantileLimit="75" quantileValue="38.7531481925831"/>
                </NumericInfo>
                <ContStats>
                  <Extension extender="spss" name="EqualWidthBinning">
                    <Array n="400" type="int">2 0 4 15 20 19 55 37 48 52 75 69 65 66 77 45 60 69 72 64 60 62 73 74 74 79 77 66 82 80 81 70 58 63 74 93 81 76 92 122 113 98 92 117 103 72 76 51 35 88 95 86 85 89 106 102 107 103 145 108 136 145 124 152 131 158 138 124 118 147 132 104 117 147 152 128 141 156 163 152 105 134 136 107 90 96 120 114 129 134 106 106 108 110 83 77 96 82 87 112 79 100 135 133 144 118 118 95 130 133 137 121 147 131 139 147 140 127 136 136 115 99 103 101 111 132 117 123 133 123 154 129 134 144 162 168 216 216 192 218 216 223 209 224 239 218 238 236 229 253 205 234 216 245 245 189 234 233 202 216 226 229 207 221 199 221 226 188 162 175 204 186 197 172 198 215 156 176 151 162 166 146 111 133 137 96 122 99 105 111 116 122 115 134 166 126 160 121 128 138 116 116 163 164 167 168 213 174 173 211 177 154 207 211 165 186 203 189 206 223 204 185 214 199 223 191 169 173 205 171 180 220 205 216 169 184 192 194 225 228 221 167 182 234 184 207 196 188 200 221 187 210 220 192 210 183 167 170 167 209 184 152 150 163 152 159 119 133 137 139 128 111 145 129 137 106 132 114 112 124 125 103 107 90 74 100 113 114 68 101 80 75 83 69 52 67 76 82 91 106 86 90 92 102 110 101 131 122 92 117 139 104 105 118 126 125 156 139 123 133 106 127 107 128 116 116 106 147 136 132 142 119 122 141 126 140 148 142 146 117 149 146 155 156 133 110 119 134 125 108 162 138 143 126 103 115 153 144 125 134 141 126 155 109 154 131 108 141 129 118 120 89 113 91 109 76 124 114 89 94 95 47 44 42 46 59 30 24 13 6 18 10 13 29 12 8 11 7 9 7 </Array>
                    <Array n="400" type="real">-103.803901672363 0 -102.396602630615 -101.886534627279 -101.48341293335 -100.980343868858 -100.455046220259 -99.8778185457797 -99.385324160258 -98.8443069458008 -98.3330605061849 -97.8539464093637 -97.3244417630709 -96.7817530776515 -96.2422059294465 -95.7597630818685 -95.2034657796224 -94.6928748531618 -94.1951037512885 -93.6841542720795 -93.1477806091309 -92.6057570672804 -92.1161366292875 -91.563349646491 -91.0737644917256 -90.5188032705573 -90.0251381613991 -89.4762855298591 -88.9977218814012 -88.4677677154541 -87.9382480574243 -87.4172707693917 -86.8630403979071 -86.4144436064221 -85.8175458134832 -85.3178488618584 -84.7943666246202 -84.2489944257234 -83.7573607071586 -83.2555779629066 -82.7281886413034 -82.2000522224271 -81.6647443356721 -81.178713154589 -80.604154938633 -80.1038145489163 -79.591998652408 -79.0705219343597 -78.4801450456892 -78.0265857523138 -77.4901161595395 -77.0216268495072 -76.461045478372 -75.9119867046228 -75.4135398144992 -74.8726224712297 -74.3778416999033 -73.8164906177706 -73.3254225106075 -72.8018805892379 -72.2566303365371 -71.7755587347623 -71.2525428648918 -70.7090971595363 -70.1923558475407 -69.6753447810306 -69.1723934118299 -68.6321224089592 -68.1226913322837 -67.5925091594255 -67.0733017776952 -66.5672900126531 -66.0214434892703 -65.499993460519 -64.9953939036319 -64.4830394983292 -63.9231770562787 -63.4131475106264 -62.8977523990935 -62.3806905244526 -61.8565410069057 -61.3213431230232 -60.809319412007 -60.3030473227813 -59.7162120819092 -59.2293288707733 -58.7198919614156 -58.2088346983257 -57.668094960294 -57.1814480681918 -56.655571811604 -56.1231753871126 -55.5897693987246 -55.0707884701816 -54.5469791917916 -54.0197885686701 -53.5189845164617 -52.9997356228712 -52.4467739675237 -51.950124161584 -51.451300464099 -50.9028359603882 -50.3886320043493 -49.8635190805994 -49.3597525490655 -48.8219477766651 -48.3037846128819 -47.7583684419331 -47.2491981212909 -46.7182085424438 -46.2276720200142 -45.6995242725719 -45.1770823212708 -44.6672293393666 -44.0800263109825 -43.6134090034329 -43.103580229623 -42.5626546003687 -42.0237772044014 -41.5114529553582 -40.955271314538 -40.4675860164141 -39.9595665422458 -39.4062071696366 -38.9015162012599 -38.3838947469538 -37.8758681859726 -37.3151947269595 -36.8452167367577 -36.3154542814425 -35.7592468509426 -35.2758838446565 -34.7276864977025 -34.2118974261814 -33.6862055225137 -33.1858039356413 -32.658166108308 -32.1137497601686 -31.6048676371574 -31.0546136733589 -30.5747345553504 -30.069445682748 -29.4840236645566 -28.9898382340159 -28.4644453216297 -27.9600266097882 -27.4553605889072 -26.9276216959549 -26.4008222188492 -25.8581326752312 -25.3437846113996 -24.8348879691882 -24.3152611608858 -23.7898996469926 -23.2683379270593 -22.750930776041 -22.2148783675626 -21.6939381366124 -21.2032668425305 -20.689800951216 -20.1488614715306 -19.614508208229 -19.095327930174 -18.5873718865856 -18.047645214215 -17.5207279688632 -17.0032522657276 -16.4870366847261 -15.9770056347788 -15.4487035260882 -14.9496402413237 -14.3919909487488 -13.8957430941199 -13.3569629414137 -12.8283687504855 -12.3191214982853 -11.768068753756 -11.3150659149343 -10.7293272460533 -10.2448807881202 -9.71270047612937 -9.20220018412969 -8.69652603768014 -8.15461720201306 -7.68098024382208 -7.0933264742295 -6.59107094905416 -6.06427581864174 -5.53105080922445 -5.0438858753926 -4.46584180716811 -3.98726715807055 -3.45443551022074 -2.90702100298298 -2.39479902709823 -1.89575656538918 -1.380086620152 -0.835960750737466 -0.341720466327388 0.197278594235431 0.70730631104831 1.26503895428674 1.77132943949085 2.27408210969553 2.80094120031345 3.32693142834164 3.85839714242819 4.37708878791195 4.89887124541178 5.40868871471893 5.93476842891025 6.44620009211751 6.97629777935968 7.502470068457 8.02529970226866 8.55360485917778 9.05889672246473 9.58763375357976 10.1081598244824 10.6224577266539 11.1559844952004 11.6777270342853 12.1989943245861 12.7093582680477 13.2284778928543 13.7220498629265 14.293594021769 14.8052895551472 15.326551111733 15.8264151846456 16.347814655304 16.8810406077992 17.4132225315745 17.8950869418957 18.4514492418639 18.962377216505 19.5227767825127 20.0139444193889 20.5539283243815 21.0648974870381 21.5665650777687 22.0933662460236 22.6241262666472 23.150898330232 23.6451914310455 24.1824229880807 24.6831432264678 25.2184855684321 25.753793888092 26.2589102179756 26.7904850964878 27.3067917233422 27.8353312405673 28.3345221181711 28.8750564211891 29.3822272774952 29.8975400639151 30.4350331699147 30.985538162871 31.4713506287935 32.0005860121354 32.5164405672174 33.002419535319 33.5340572661417 34.0824175382915 34.6413943212737 35.1279514537138 35.6632897800073 36.1912612636594 36.670701747318 37.2142867743969 37.7390065923467 38.2591543789568 38.7909255804018 39.3010026695084 39.815937582052 40.3629373203624 40.8421619482208 41.3985083443778 41.9395183747815 42.4317465820313 42.9184131066776 43.4675652334623 43.9869408077664 44.5549077729921 45.0509191513062 45.5609911690771 46.072141145405 46.5926557428697 47.1388553203923 47.6195897102356 48.150752919515 48.6668872603451 49.1832462255506 49.675347328186 50.2715864039179 50.7907876968384 51.2786998283572 51.8249494531652 52.3228029215111 52.8357745769412 53.4168167961968 53.9327387602433 54.4509730619543 54.9353952234442 55.4662373986575 55.9887819071762 56.4864460366671 57.0208742722221 57.5857746091663 58.062680608077 58.6234160936796 59.1148930140904 59.6434410224527 60.1815683576796 60.6707917175293 61.2067004961845 61.7070503783741 62.2603284634226 62.7765430364394 63.2909019758117 63.8225106066606 64.3280278143482 64.8481495976448 65.3843875095762 65.9057712554932 66.3946713141675 66.9347871014861 67.4532732122085 67.9765127933387 68.5227149103729 69.032257528866 69.5698680565005 70.073982671643 70.6083928062802 71.1160358428955 71.6393158371384 72.1427942195409 72.6783765505438 73.2125924265283 73.7085061809361 74.2426132829222 74.7651626094695 75.2700774363982 75.8236731622452 76.3376488425515 76.8522461322175 77.3763186896025 77.868682800293 78.4289632726599 78.9383892012231 79.4250001769135 79.9974481542627 80.4822202410017 81.0290819186609 81.5355470740277 82.0489972681781 82.5732281472948 83.1011368408203 83.637445478297 84.132503807122 84.6933677915543 85.1759092269405 85.6859391938656 86.2300167331448 86.7574278270925 87.308725003843 87.7996985252867 88.3216944258342 88.8147085157491 89.341036605835 89.8667550247707 90.3967455973667 90.9240982558701 91.4276073350819 91.9716478648939 92.5039638396232 93.0164862515634 93.5396793665511 94.0377241905699 94.5931165996351 95.0487031327917 95.5871614976363 96.1670070829846 96.6804511028787 97.1788558959961 97.7070678710938 98.2242002487183 98.7154300396259 99.2953631083171 99.8293681674533 100.433159637451 100.835122915415 101.337648589036 101.82272084554 102.440793991089 102.920958779075 103.434441702706 103.845647176107 104.538722446987 </Array>
                  </Extension>
                </ContStats>
              </UnivariateStats>
              <UnivariateStats field="y">
                <Counts missingFreq="0" totalFreq="51946"/>
                <NumericInfo interQuartileRange="73.5254454059292" maximum="92.8469772338867" mean="4.82465002894182" median="8.62408366074673" minimum="-91.7699661254883" standardDeviation="44.3818756697772">
                  <Quantile quantileLimit="25" quantileValue="-32.0190144135231"/>
                  <Quantile quantileLimit="75" quantileValue="41.5064309924061"/>
                </NumericInfo>
                <ContStats>
                  <Extension extender="spss" name="EqualWidthBinning">
                    <Array n="400" type="int">7 16 17 8 24 28 33 25 29 35 42 35 28 51 50 38 40 62 54 47 63 59 48 49 62 49 55 67 54 74 67 64 33 53 44 41 59 71 51 48 58 57 84 51 82 81 68 76 90 69 56 55 65 76 56 70 79 93 92 103 78 117 82 97 97 102 107 108 106 101 90 110 136 103 111 116 104 125 126 146 129 115 114 134 130 146 160 137 164 145 174 166 164 179 162 157 186 196 185 138 150 191 186 163 154 185 212 190 174 165 147 143 144 196 193 160 158 135 147 138 146 127 116 143 108 128 112 108 125 129 152 108 134 117 134 126 138 144 151 135 142 146 142 120 178 185 142 158 155 130 169 148 118 134 113 116 137 142 164 153 188 164 183 161 155 144 163 192 175 154 188 155 147 166 140 176 139 105 135 110 112 134 127 98 99 109 144 112 121 115 135 102 110 119 149 134 158 152 187 176 171 123 162 145 144 172 190 182 153 151 171 185 181 155 177 169 210 215 208 188 218 202 213 191 208 248 244 227 237 230 204 219 232 246 229 258 244 218 220 194 207 218 235 223 196 195 198 206 197 189 216 187 178 148 176 163 151 181 140 134 106 128 152 133 140 133 124 164 139 153 148 140 140 87 111 109 133 171 137 198 149 164 160 185 144 163 209 200 191 178 196 173 189 165 165 166 184 215 185 170 232 202 216 182 201 170 185 226 187 151 206 195 195 171 181 194 130 171 158 153 153 144 153 146 202 161 131 121 129 122 105 126 84 83 121 106 98 119 104 104 83 130 81 91 118 118 111 77 89 128 107 95 109 105 93 98 107 91 76 106 95 125 99 99 112 110 103 93 96 96 83 83 91 107 81 67 80 80 47 74 80 64 69 75 60 61 55 44 56 29 29 41 46 34 29 39 32 24 25 12 </Array>
                    <Array n="400" type="real">-91.550171988351 -91.0196876525879 -90.6608011582318 -90.1031932830811 -89.6901378631592 -89.2307444981166 -88.8089534875118 -88.3376907348633 -87.8645177380792 -87.37688533238 -86.9104154677618 -86.48033316476 -85.9893455505371 -85.5387119966395 -85.0741372680664 -84.5992574189839 -84.0990297317505 -83.6927875395744 -83.2407595316569 -82.7554954366481 -82.3179128737677 -81.8546418012199 -81.4055994351705 -80.9036840322066 -80.4655618975239 -79.9904855222118 -79.530129033869 -79.0689724594799 -78.6186577125832 -78.1416465140678 -77.7598373640829 -77.2056832313538 -76.7514320142341 -76.3012405971311 -75.878548708829 -75.3625527358637 -74.9184878074517 -74.4814652993645 -73.9796028885187 -73.5343441963196 -73.054873499377 -72.5838024741725 -72.1700550260998 -71.6670533722522 -71.2498032174459 -70.8027257095149 -70.3194677689496 -69.8182401155171 -69.4108068678114 -68.9566902492357 -68.4734825406756 -68.0146428888494 -67.524203139085 -67.0940080943861 -66.6252930504935 -66.1644142150879 -65.6940342384049 -65.2244498960434 -64.7511454872463 -64.303313986769 -63.8518552046556 -63.3821291475215 -62.9199513226021 -62.4633882266959 -62.0082557914183 -61.533296734679 -61.088938525904 -60.5954216851128 -60.1688300798524 -59.708434416516 -59.2356206258138 -58.7581098036333 -58.2949320568758 -57.8476722124711 -57.398817491961 -56.9301319122314 -56.4682251856877 -56.015880279541 -55.5184242309086 -55.0634032471539 -54.6066393593485 -54.1513805886974 -53.6819737752279 -53.2197601261424 -52.7845907358023 -52.3145768152524 -51.8709483146667 -51.396843290677 -50.9159580556358 -50.4498430975552 -50.0082775203661 -49.5422938473253 -49.0655835081891 -48.6247968194205 -48.1694871643443 -47.6858901248616 -47.2387824725079 -46.7726934004803 -46.3214488261455 -45.8303232331207 -45.3846701049805 -44.9407717120585 -44.447876714891 -44.0005374042534 -43.5384966862666 -43.0643894711056 -42.6260674674556 -42.1612868861148 -41.6982393155153 -41.2044536706173 -40.7956995801861 -40.287598830003 -39.8327023188273 -39.3935380273936 -38.9300942692732 -38.4545068025589 -37.9955479827108 -37.5385808308919 -37.0669700207353 -36.6296553680862 -36.1538295484569 -35.7178802790604 -35.2321325499436 -34.7582456682112 -34.3091438787955 -33.8343803584576 -33.3868742329734 -32.9227950131452 -32.4667919311523 -32.0070752580036 -31.5520859392066 -31.080379874618 -30.6268853429538 -30.1381608848898 -29.696654376699 -29.2231004200284 -28.7435734099236 -28.3249554766549 -27.8484049538113 -27.3908016063549 -26.9138432354994 -26.4814822967738 -26.0118582013627 -25.5576551278432 -25.0828117199158 -24.6089976542705 -24.1506149533769 -23.6858121171782 -23.2299093307987 -22.7753000846276 -22.3234585192077 -21.8349013715177 -21.3668583045572 -20.9234349692046 -20.4470178215905 -20.0357760889777 -19.5200455519405 -19.0578561164963 -18.6076545715332 -18.1417685240702 -17.6944386705439 -17.2386505661941 -16.7419147699908 -16.3098136949243 -15.8321792417957 -15.3908214767774 -14.9383326337381 -14.4616950402657 -13.994735521589 -13.5290537313981 -13.0831606946093 -12.6126219472578 -12.1755726353652 -11.7071545727282 -11.2250538076673 -10.7669652375308 -10.3136805115844 -9.84196507590158 -9.38168207804362 -8.93633456663652 -8.4578184740884 -7.96972985409979 -7.55214792536938 -7.06703474083725 -6.64498237166742 -6.14931876068815 -5.69425332215097 -5.22615958111627 -4.7623542557078 -4.30435399179873 -3.82547298007541 -3.37278709224626 -2.90246474092657 -2.43911355082728 -2.00019128290599 -1.55551388993192 -1.07645230881775 -0.613419033194843 -0.16134645229823 0.309998575259339 0.765771318248838 1.20984925487177 1.70128770890059 2.16102970879653 2.62773565782441 3.10071660474289 3.54053117099561 3.9938874074391 4.45206503462947 4.91951863497298 5.39380597510533 5.83746541255229 6.32097042199656 6.76873289538968 7.23863544841271 7.70356370147163 8.15019370487758 8.61249652685121 9.09554818043342 9.5239622592926 9.99711356469251 10.4714557864878 10.9490004749925 11.3738526299362 11.8475325978719 12.3095452554764 12.7710483660463 13.2339783134965 13.682650638532 14.1577944589698 14.6394390498891 15.0853258768717 15.5449020328193 16.003256650475 16.4835805268267 16.9267128419506 17.3854854302328 17.8566793126797 18.2895777875727 18.7772871587694 19.2421511774478 19.6978034535679 20.1409279031956 20.6182944464577 21.084082009841 21.5464179601425 22.001533277107 22.47034208057 22.9263255705083 23.3872683287928 23.8429664240943 24.298525539949 24.7532363205813 25.2274550102852 25.7003947713158 26.1343818383714 26.6291120415492 27.0695058285202 27.5345090321132 27.9806997099919 28.4661952144695 28.9273404628038 29.3860160928024 29.8605184626759 30.2994241578238 30.7604421171031 31.2277049710674 31.6992973350897 32.153800456644 32.6123933729783 33.0823610151136 33.5293263026646 33.9905094964164 34.4647055001094 34.9108050578349 35.3721807637346 35.8344268225189 36.3130233050787 36.7724939332391 37.2316060114388 37.6984694564103 38.1389064323611 38.5991194486618 39.0721460084657 39.5211360719469 39.9821205841252 40.4637474534614 40.914019203186 41.391171180765 41.8464984036563 42.3153935646524 42.7674889757454 43.2372644212511 43.6972748958703 44.1522122007428 44.6237161705293 45.087353353915 45.5191426831622 46.0097777083113 46.4869012271657 46.9250138381432 47.3760371821942 47.8481263937774 48.3006137805981 48.7835176382492 49.2107315961052 49.6978230656804 50.1452666088543 50.5924726883995 51.0831677013675 51.5319358862719 52.004706456111 52.4427267025679 52.9412792049653 53.4042181152007 53.851150650339 54.301894906851 54.7749939187925 55.2508536471596 55.7025963029051 56.1404027751848 56.6064256297217 57.0741608563591 57.57095391783 58.0102596471805 58.4687916299571 58.9055976867676 59.3824133124233 59.8460903611294 60.3270245536429 60.7970532371884 61.23068222167 61.705587432498 62.1460110767778 62.6039655385924 63.0758109542559 63.5448584264638 64.0081220995478 64.4639855898344 64.9159291340755 65.4120851999306 65.8351362375113 66.3055497157721 66.787348149897 67.2266206902973 67.7053584082652 68.1700442889789 68.5819249338918 69.0920197561885 69.5477803945541 69.9794899771147 70.4624396876285 70.929516153598 71.3931818644206 71.8481015441238 72.3154612949916 72.7687089866567 73.2082940405542 73.6769407171952 74.1640565980155 74.594987487793 75.0782979125977 75.5087103795524 76.0319633098564 76.4674948283604 76.9053757407448 77.4110579999905 77.8423128025506 78.3112593491872 78.7677035331726 79.2128611185465 79.6906076454255 80.1484841147622 80.6154349496431 81.0732643221631 81.5544109059803 82.0405274391174 82.4278180122376 82.9484015931474 83.3619732212376 83.8161686897278 84.3572894334793 84.8108442002448 85.2207317097982 85.6754559834798 86.1407855925013 86.5864639282227 87.0757933529941 87.5677348545619 87.9877945472454 88.4515570278825 88.9585593618998 89.3804604903511 89.8123009625603 90.2959997242895 90.7851846156976 91.2035195827484 91.6960252126058 92.1566061401367 92.6146812438965 </Array>
                  </Extension>
                </ContStats>
              </UnivariateStats>
            </ModelStats>
            <Cluster name="1" size="6231">
              <Extension extender="spss" name="CustomCluster">
                <CustomCluster description="" label=""/>
              </Extension>
              <Extension extender="spss" name="Importance">
                <Array n="2" type="real">1 1 </Array>
              </Extension>
              <Partition name="1">
                <PartitionFieldStats field="x">
                  <Counts missingFreq="0" totalFreq="6231"/>
                  <NumericInfo interQuartileRange="25.4950531571632" maximum="-16.2484169006348" mean="-46.2872364492329" median="-47.9936955973506" minimum="-76.6631851196289" standardDeviation="15.0797746676122">
                    <Quantile quantileLimit="25" quantileValue="-57.7021991513496"/>
                    <Quantile quantileLimit="75" quantileValue="-32.2071459941864"/>
                  </NumericInfo>
                  <Extension extender="spss" name="EqualWidthBinning">
                    <Array n="400" type="int">0 0 0 0 0 0 0 0 0 0 0 0 0 0 0 0 0 0 0 0 0 0 0 0 0 0 0 0 0 0 0 0 0 0 0 0 0 0 0 0 0 0 0 0 0 0 0 0 0 0 0 0 8 5 7 15 18 8 33 10 22 39 36 45 30 50 47 25 37 77 57 38 37 60 67 50 55 59 62 65 46 58 74 61 35 46 66 71 86 89 82 85 95 81 73 67 96 72 68 100 70 81 103 92 88 80 84 64 84 69 95 88 102 64 70 97 86 59 70 58 15 26 32 24 20 17 23 25 32 14 34 20 31 26 56 55 79 75 62 82 91 63 70 79 74 57 47 69 64 48 56 43 46 50 62 49 46 46 45 31 49 44 36 33 22 10 21 15 0 0 0 0 0 0 0 0 0 0 0 0 0 0 0 0 0 0 0 0 0 0 0 0 0 0 0 0 0 0 0 0 0 0 0 0 0 0 0 0 0 0 0 0 0 0 0 0 0 0 0 0 0 0 0 0 0 0 0 0 0 0 0 0 0 0 0 0 0 0 0 0 0 0 0 0 0 0 0 0 0 0 0 0 0 0 0 0 0 0 0 0 0 0 0 0 0 0 0 0 0 0 0 0 0 0 0 0 0 0 0 0 0 0 0 0 0 0 0 0 0 0 0 0 0 0 0 0 0 0 0 0 0 0 0 0 0 0 0 0 0 0 0 0 0 0 0 0 0 0 0 0 0 0 0 0 0 0 0 0 0 0 0 0 0 0 0 0 0 0 0 0 0 0 0 0 0 0 0 0 0 0 0 0 0 0 0 0 0 0 0 0 0 0 0 0 0 0 0 0 0 0 0 0 0 0 0 0 0 0 0 0 0 0 0 0 0 0 0 0 0 0 0 0 0 0 0 0 0 0 0 0 </Array>
                    <Array n="400" type="real">0 0 0 0 0 0 0 0 0 0 0 0 0 0 0 0 0 0 0 0 0 0 0 0 0 0 0 0 0 0 0 0 0 0 0 0 0 0 0 0 0 0 0 0 0 0 0 0 0 0 0 0 -76.4115991592407 -75.9207855224609 -75.4645865304129 -74.7782689412435 -74.3610157436795 -73.7857427597046 -73.3594503691702 -72.8443946838379 -72.2241623618386 -71.7569763966096 -71.2414851718479 -70.7105797661675 -70.2043421427409 -69.6802603149414 -69.1854316224443 -68.6413558959961 -68.0856178902291 -67.5830309979327 -67.0524610552871 -66.5819828635768 -65.9934356277053 -65.4887396494548 -64.9883168917983 -64.4492781066894 -63.9311399980025 -63.4308745820644 -62.9072173949211 -62.3514501131498 -61.8810409877611 -61.3307896318107 -60.8040774061873 -60.2976000426246 -59.7192683628627 -59.2339625980543 -58.7091715263598 -58.1907155748824 -57.6870076379111 -57.1929383438625 -56.6466334273175 -56.1101485308479 -55.5910865783691 -55.0815536593214 -54.5534369063704 -54.0289951153656 -53.5189845164617 -53.0111927456326 -52.4571603887221 -51.9428561782837 -51.4523763384138 -50.9172255904586 -50.3816657945948 -49.8934278073518 -49.3650667884133 -48.8135464191437 -48.3109033675421 -47.7708801627159 -47.2568957919166 -46.6957412940868 -46.2411299454538 -45.6952321312644 -45.1581291497922 -44.6874132156372 -44.0704061780657 -43.6091971643192 -43.1113718609477 -42.5918667033567 -42.0284826551165 -41.4979680159996 -40.9783991495768 -40.494044817411 -39.9708437919617 -39.4596352577209 -38.9769414901733 -38.3399092730354 -37.875360240107 -37.322425994873 -36.9259370565414 -36.2845434461321 -35.7853465360754 -35.2810230255127 -34.730582698699 -34.1718424283541 -33.6860269137791 -33.1931746742942 -32.658833998668 -32.1278865814209 -31.6180795546501 -31.0516573743122 -30.5579706967532 -30.0610620710585 -29.476184790475 -29.0047524609143 -28.4884571126989 -27.9570043128833 -27.4143859782117 -26.91082158296 -26.3850545883179 -25.8431545893351 -25.3590204715729 -24.7978830559309 -24.3057140267414 -23.7705832290649 -23.2736122377457 -22.726607536783 -22.2382553764012 -21.6896407500557 -21.2493987613254 -20.6969755849531 -20.1026398794992 -19.6309106133201 -19.1256605254279 -18.5604031302712 -18.0627225529064 -17.5153495788574 -16.9746378035772 -16.5127068837484 0 0 0 0 0 0 0 0 0 0 0 0 0 0 0 0 0 0 0 0 0 0 0 0 0 0 0 0 0 0 0 0 0 0 0 0 0 0 0 0 0 0 0 0 0 0 0 0 0 0 0 0 0 0 0 0 0 0 0 0 0 0 0 0 0 0 0 0 0 0 0 0 0 0 0 0 0 0 0 0 0 0 0 0 0 0 0 0 0 0 0 0 0 0 0 0 0 0 0 0 0 0 0 0 0 0 0 0 0 0 0 0 0 0 0 0 0 0 0 0 0 0 0 0 0 0 0 0 0 0 0 0 0 0 0 0 0 0 0 0 0 0 0 0 0 0 0 0 0 0 0 0 0 0 0 0 0 0 0 0 0 0 0 0 0 0 0 0 0 0 0 0 0 0 0 0 0 0 0 0 0 0 0 0 0 0 0 0 0 0 0 0 0 0 0 0 0 0 0 0 0 0 0 0 0 0 0 0 0 0 0 0 0 0 0 0 0 0 0 0 0 0 0 0 0 0 0 0 0 0 0 0 </Array>
                  </Extension>
                </PartitionFieldStats>
                <PartitionFieldStats field="y">
                  <Counts missingFreq="0" totalFreq="6231"/>
                  <NumericInfo interQuartileRange="22.1886488800049" maximum="-9.94830417633057" mean="-37.5093493107291" median="-37.4769833459988" minimum="-65.8649215698242" standardDeviation="13.7828006735117">
                    <Quantile quantileLimit="25" quantileValue="-48.5926784973145"/>
                    <Quantile quantileLimit="75" quantileValue="-26.4040296173096"/>
                  </NumericInfo>
                  <Extension extender="spss" name="EqualWidthBinning">
                    <Array n="400" type="int">0 0 0 0 0 0 0 0 0 0 0 0 0 0 0 0 0 0 0 0 0 0 0 0 0 0 0 0 0 0 0 0 0 0 0 0 0 0 0 0 0 0 0 0 0 0 0 0 0 0 0 0 0 0 0 0 11 7 8 16 15 29 17 27 26 29 35 45 44 43 33 38 50 44 25 48 46 57 58 58 40 42 46 51 49 68 61 47 59 63 57 65 63 70 60 61 76 57 63 57 47 62 71 61 53 51 82 76 61 72 54 55 60 91 74 54 83 71 68 60 94 68 56 75 53 55 71 63 81 66 71 54 74 66 70 58 56 73 54 60 52 52 60 59 86 75 51 58 52 57 58 65 47 56 32 30 38 45 48 54 51 41 53 44 42 31 27 41 30 32 22 20 34 26 25 29 18 2 0 0 0 0 0 0 0 0 0 0 0 0 0 0 0 0 0 0 0 0 0 0 0 0 0 0 0 0 0 0 0 0 0 0 0 0 0 0 0 0 0 0 0 0 0 0 0 0 0 0 0 0 0 0 0 0 0 0 0 0 0 0 0 0 0 0 0 0 0 0 0 0 0 0 0 0 0 0 0 0 0 0 0 0 0 0 0 0 0 0 0 0 0 0 0 0 0 0 0 0 0 0 0 0 0 0 0 0 0 0 0 0 0 0 0 0 0 0 0 0 0 0 0 0 0 0 0 0 0 0 0 0 0 0 0 0 0 0 0 0 0 0 0 0 0 0 0 0 0 0 0 0 0 0 0 0 0 0 0 0 0 0 0 0 0 0 0 0 0 0 0 0 0 0 0 0 0 0 0 0 0 0 0 0 0 0 0 0 0 0 0 0 0 0 0 0 0 0 0 0 0 0 0 0 0 0 0 0 0 0 0 0 0 0 0 0 0 0 0 0 0 0 </Array>
                    <Array n="400" type="real">0 0 0 0 0 0 0 0 0 0 0 0 0 0 0 0 0 0 0 0 0 0 0 0 0 0 0 0 0 0 0 0 0 0 0 0 0 0 0 0 0 0 0 0 0 0 0 0 0 0 0 0 0 0 0 0 -65.6570150201971 -65.3021545410156 -64.7722148895264 -64.3209080696106 -63.8164774576823 -63.3609862492002 -62.8988333309398 -62.4772005434389 -62.0342002281776 -61.5068797407479 -61.0719217572893 -60.6103542751736 -60.178431597623 -59.7194104749103 -59.2687045010653 -58.773082431994 -58.2845695495605 -57.8316456187855 -57.4123159790039 -56.9213343461355 -56.4750589287799 -56.0320528933876 -55.5200535346722 -55.0601637610074 -54.5952220916748 -54.1179499853225 -53.6869408151378 -53.2001036849676 -52.8044108176718 -52.3088293636546 -51.873884857678 -51.3959899253034 -50.9036881398346 -50.4309534345354 -50.0255007158246 -49.5480444688063 -49.0608718508766 -48.6367698669434 -48.1557039260864 -47.7089011395564 -47.2470686059249 -46.761442017137 -46.3233427622962 -45.8276457535593 -45.383770232505 -44.933166134742 -44.4560648958448 -43.9973246464964 -43.5584855709436 -43.0558063282686 -42.6039130048054 -42.1823572861521 -41.694233378426 -41.1967187457614 -40.803189807468 -40.3013916015625 -39.8498079299927 -39.3646082616114 -38.9375032476477 -38.4622376053422 -37.9855767215591 -37.5622084174358 -37.0633797926061 -36.6216251373291 -36.1584760787639 -35.7300381940954 -35.2453203201294 -34.7442735799154 -34.3283557531969 -33.8216777454723 -33.3902529864244 -32.9069048563639 -32.4744439772618 -32.0304599819761 -31.539323941083 -31.0831729747631 -30.6275326239096 -30.1164659731316 -29.7018872397287 -29.2185240120723 -28.7388536248888 -28.32470703125 -27.8330546485053 -27.3871176401774 -26.9142164817223 -26.4514102568993 -26.027197933197 -25.561419794115 -25.0886670711429 -24.6199751536051 -24.1371297649309 -23.7135688189802 -23.2244114875793 -22.7894699029755 -22.3283602944736 -21.8340850830078 -21.3495391683376 -20.9157040119171 -20.4760758280754 -20.0014291127523 -19.5518986049451 -19.0433063083225 -18.5904276371002 -18.1270443951642 -17.7060284334071 -17.2734589925626 -16.7345171514547 -16.2908038226041 -15.8536930538359 -15.3847513506489 -14.9521192621302 -14.4792456743194 -14.0043749173482 -13.5488821268082 -13.0439153584567 -12.6040611743927 -12.1761679368861 -11.715937100924 -11.201509513855 -10.735553017978 -10.3071100446913 -9.96094751358032 0 0 0 0 0 0 0 0 0 0 0 0 0 0 0 0 0 0 0 0 0 0 0 0 0 0 0 0 0 0 0 0 0 0 0 0 0 0 0 0 0 0 0 0 0 0 0 0 0 0 0 0 0 0 0 0 0 0 0 0 0 0 0 0 0 0 0 0 0 0 0 0 0 0 0 0 0 0 0 0 0 0 0 0 0 0 0 0 0 0 0 0 0 0 0 0 0 0 0 0 0 0 0 0 0 0 0 0 0 0 0 0 0 0 0 0 0 0 0 0 0 0 0 0 0 0 0 0 0 0 0 0 0 0 0 0 0 0 0 0 0 0 0 0 0 0 0 0 0 0 0 0 0 0 0 0 0 0 0 0 0 0 0 0 0 0 0 0 0 0 0 0 0 0 0 0 0 0 0 0 0 0 0 0 0 0 0 0 0 0 0 0 0 0 0 0 0 0 0 0 0 0 0 0 0 0 0 0 0 0 0 0 0 0 0 0 0 0 0 0 0 0 </Array>
                  </Extension>
                </PartitionFieldStats>
              </Partition>
            </Cluster>
            <Cluster name="2" size="6348">
              <Extension extender="spss" name="CustomCluster">
                <CustomCluster description="" label=""/>
              </Extension>
              <Extension extender="spss" name="Importance">
                <Array n="2" type="real">0.0171773077408675 1 </Array>
              </Extension>
              <Partition name="2">
                <PartitionFieldStats field="x">
                  <Counts missingFreq="0" totalFreq="6348"/>
                  <NumericInfo interQuartileRange="27.3734603171438" maximum="32.3172912597656" mean="2.18825568558937" median="4.1297470932915" minimum="-28.3723049163818" standardDeviation="15.6572896582503">
                    <Quantile quantileLimit="25" quantileValue="-12.2203376589051"/>
                    <Quantile quantileLimit="75" quantileValue="15.1531226582387"/>
                  </NumericInfo>
                  <Extension extender="spss" name="EqualWidthBinning">
                    <Array n="400" type="int">0 0 0 0 0 0 0 0 0 0 0 0 0 0 0 0 0 0 0 0 0 0 0 0 0 0 0 0 0 0 0 0 0 0 0 0 0 0 0 0 0 0 0 0 0 0 0 0 0 0 0 0 0 0 0 0 0 0 0 0 0 0 0 0 0 0 0 0 0 0 0 0 0 0 0 0 0 0 0 0 0 0 0 0 0 0 0 0 0 0 0 0 0 0 0 0 0 0 0 0 0 0 0 0 0 0 0 0 0 0 0 0 0 0 0 0 0 0 0 0 0 0 0 0 0 0 0 0 0 0 0 0 0 0 0 0 0 0 0 0 0 0 0 0 6 18 21 24 28 34 26 29 31 49 34 39 47 44 47 57 46 61 49 44 56 81 70 52 60 78 81 90 91 66 72 83 64 62 66 65 66 61 36 59 43 27 28 49 32 27 30 47 42 51 68 40 64 33 38 40 47 32 74 73 62 50 82 63 56 101 79 68 74 69 76 75 86 79 90 94 65 82 74 67 84 51 68 75 68 71 76 85 73 84 46 46 67 69 79 69 65 44 42 69 44 43 50 39 40 49 54 39 36 33 39 9 16 12 16 13 12 3 0 0 0 0 0 0 0 0 0 0 0 0 0 0 0 0 0 0 0 0 0 0 0 0 0 0 0 0 0 0 0 0 0 0 0 0 0 0 0 0 0 0 0 0 0 0 0 0 0 0 0 0 0 0 0 0 0 0 0 0 0 0 0 0 0 0 0 0 0 0 0 0 0 0 0 0 0 0 0 0 0 0 0 0 0 0 0 0 0 0 0 0 0 0 0 0 0 0 0 0 0 0 0 0 0 0 0 0 0 0 0 0 0 0 0 0 0 0 0 0 0 0 0 0 0 0 0 0 0 0 0 0 0 0 0 0 0 0 </Array>
                    <Array n="400" type="real">0 0 0 0 0 0 0 0 0 0 0 0 0 0 0 0 0 0 0 0 0 0 0 0 0 0 0 0 0 0 0 0 0 0 0 0 0 0 0 0 0 0 0 0 0 0 0 0 0 0 0 0 0 0 0 0 0 0 0 0 0 0 0 0 0 0 0 0 0 0 0 0 0 0 0 0 0 0 0 0 0 0 0 0 0 0 0 0 0 0 0 0 0 0 0 0 0 0 0 0 0 0 0 0 0 0 0 0 0 0 0 0 0 0 0 0 0 0 0 0 0 0 0 0 0 0 0 0 0 0 0 0 0 0 0 0 0 0 0 0 0 0 0 0 -28.2898956934611 -27.9652022255792 -27.4962002890451 -26.9084176222483 -26.4064198221479 -25.8305554670446 -25.2797469359178 -24.8158124068688 -24.3256436624835 -23.7767071626624 -23.2449388504028 -22.7495549030793 -22.2168163543052 -21.655434998599 -21.2131466155357 -20.6873933557878 -20.1691216593203 -19.5755250336694 -19.0881323911706 -18.5767052823847 -18.0161242485046 -17.5593929290771 -17.010674231393 -16.4816833642813 -15.9639195760091 -15.44403894131 -14.95221374653 -14.3983155992296 -13.9060473180079 -13.3542314442721 -12.8661915328768 -12.3017225495304 -11.7630761116743 -11.3547337593571 -10.7465686364607 -10.2487010515653 -9.700023318782 -9.2273585210081 -8.70788537131416 -8.10200102854583 -7.69455873134524 -7.05080676961828 -6.63551945345742 -6.05630193437849 -5.53135551512241 -5.08989445368449 -4.43781536420186 -4.00206949355754 -3.45819226333073 -2.94340216412264 -2.39887347642113 -1.91345901787281 -1.40292091295123 -0.849368052049117 -0.368554220779946 0.191736108722398 0.706592982753794 1.2518300563097 1.76348412842364 2.28298832292426 2.78043434312267 3.32828190803528 3.85740014111123 4.32653813891941 4.92304573740278 5.40469587439358 5.94341806822185 6.4807087393368 6.93952718296566 7.50994351981343 8.04129291835584 8.54476702372233 9.05653253821439 9.59184289280372 10.1171828375922 10.6073906573843 11.1573185994075 11.7038498622615 12.180942419413 12.7132803646486 13.21863589968 13.6884564605414 14.3017519782571 14.80772093455 15.3280002229354 15.8426693929753 16.3221356492294 16.8852939830107 17.4094239587653 17.9009650775364 18.4390309789906 18.959147826485 19.5555576779949 20.0053313158561 20.5797620362873 21.0606683095296 21.5589868105375 22.0719376477328 22.6065176555089 23.1341184809588 23.6331419511275 24.1916413418082 24.7071681976318 25.219043144813 25.7429478645325 26.2183964787697 26.8159974416097 27.3158751267653 27.8107154104445 28.3268233212558 28.8645672431359 29.3044509887695 29.9296252727509 30.4577151934306 30.936961889267 31.4688468346229 31.9952395757039 32.2951583862305 0 0 0 0 0 0 0 0 0 0 0 0 0 0 0 0 0 0 0 0 0 0 0 0 0 0 0 0 0 0 0 0 0 0 0 0 0 0 0 0 0 0 0 0 0 0 0 0 0 0 0 0 0 0 0 0 0 0 0 0 0 0 0 0 0 0 0 0 0 0 0 0 0 0 0 0 0 0 0 0 0 0 0 0 0 0 0 0 0 0 0 0 0 0 0 0 0 0 0 0 0 0 0 0 0 0 0 0 0 0 0 0 0 0 0 0 0 0 0 0 0 0 0 0 0 0 0 0 0 0 0 0 0 0 0 0 0 0 </Array>
                  </Extension>
                </PartitionFieldStats>
                <PartitionFieldStats field="y">
                  <Counts missingFreq="0" totalFreq="6348"/>
                  <NumericInfo interQuartileRange="22.3069354067441" maximum="-36.7235679626465" mean="-63.9323870767643" median="-64.2073991937747" minimum="-91.7699661254883" standardDeviation="13.8236588210927">
                    <Quantile quantileLimit="25" quantileValue="-74.8669550931252"/>
                    <Quantile quantileLimit="75" quantileValue="-52.560019686381"/>
                  </NumericInfo>
                  <Extension extender="spss" name="EqualWidthBinning">
                    <Array n="400" type="int">7 16 17 8 24 28 33 25 29 35 42 35 28 51 50 38 40 62 54 47 63 59 48 49 62 49 55 67 54 74 67 64 33 53 44 41 59 71 51 48 58 57 84 51 82 81 68 76 90 69 56 55 65 76 56 70 68 86 84 87 63 88 65 70 71 73 72 63 62 58 57 72 81 49 75 62 45 52 56 66 61 51 40 52 60 52 63 52 56 45 77 57 48 70 52 50 67 52 63 42 45 56 51 44 41 54 49 58 47 31 34 43 42 37 34 31 17 11 9 5 0 0 0 0 0 0 0 0 0 0 0 0 0 0 0 0 0 0 0 0 0 0 0 0 0 0 0 0 0 0 0 0 0 0 0 0 0 0 0 0 0 0 0 0 0 0 0 0 0 0 0 0 0 0 0 0 0 0 0 0 0 0 0 0 0 0 0 0 0 0 0 0 0 0 0 0 0 0 0 0 0 0 0 0 0 0 0 0 0 0 0 0 0 0 0 0 0 0 0 0 0 0 0 0 0 0 0 0 0 0 0 0 0 0 0 0 0 0 0 0 0 0 0 0 0 0 0 0 0 0 0 0 0 0 0 0 0 0 0 0 0 0 0 0 0 0 0 0 0 0 0 0 0 0 0 0 0 0 0 0 0 0 0 0 0 0 0 0 0 0 0 0 0 0 0 0 0 0 0 0 0 0 0 0 0 0 0 0 0 0 0 0 0 0 0 0 0 0 0 0 0 0 0 0 0 0 0 0 0 0 0 0 0 0 0 0 0 0 0 0 0 0 0 0 0 0 0 0 0 0 0 0 0 0 0 0 0 0 0 0 0 0 0 0 0 0 0 0 0 0 0 0 0 0 0 0 0 0 0 0 0 0 0 0 0 0 0 0 0 0 0 0 0 0 0 0 0 0 0 0 </Array>
                    <Array n="400" type="real">-91.550171988351 -91.0196876525879 -90.6608011582318 -90.1031932830811 -89.6901378631592 -89.2307444981166 -88.8089534875118 -88.3376907348633 -87.8645177380792 -87.37688533238 -86.9104154677618 -86.48033316476 -85.9893455505371 -85.5387119966395 -85.0741372680664 -84.5992574189839 -84.0990297317505 -83.6927875395744 -83.2407595316569 -82.7554954366481 -82.3179128737677 -81.8546418012199 -81.4055994351705 -80.9036840322066 -80.4655618975239 -79.9904855222118 -79.530129033869 -79.0689724594799 -78.6186577125832 -78.1416465140678 -77.7598373640829 -77.2056832313538 -76.7514320142341 -76.3012405971311 -75.878548708829 -75.3625527358637 -74.9184878074517 -74.4814652993645 -73.9796028885187 -73.5343441963196 -73.054873499377 -72.5838024741725 -72.1700550260998 -71.6670533722522 -71.2498032174459 -70.8027257095149 -70.3194677689496 -69.8182401155171 -69.4108068678114 -68.9566902492357 -68.4734825406756 -68.0146428888494 -67.524203139085 -67.0940080943861 -66.6252930504935 -66.1644142150879 -65.7000226413502 -65.2181250993596 -64.7491388775053 -64.3000782933728 -63.8602784777445 -63.3890966935591 -62.9254744896522 -62.4580606188093 -61.99875501176 -61.5437911569256 -61.0972105662028 -60.5847555493552 -60.1620160994991 -59.7002969939133 -59.2164668032998 -58.7502075831095 -58.3085890404972 -57.8640544657805 -57.3828418986003 -56.9352441603138 -56.488814968533 -56.0132031073937 -55.5122531482152 -55.0834584091649 -54.6275291442871 -54.1647304460114 -53.6813920021057 -53.2255900456355 -52.7799640019735 -52.3133665965154 -51.8864471193344 -51.4023584219126 -50.899781022753 -50.4402357313368 -50.0188962763006 -49.5564361706115 -49.0690138339996 -48.6215700422014 -48.1978715016292 -47.6352239990234 -47.2280276284289 -46.7918813412006 -46.306944408114 -45.8523522331601 -45.4092212253147 -44.9355170386178 -44.4362519208123 -44.0368221456354 -43.5415305160895 -43.0542419574879 -42.6558303833008 -42.1424431636416 -41.6863210150536 -41.1821495794481 -40.7788227305693 -40.2779457624569 -39.8483000255766 -39.446015641496 -38.9213649525362 -38.4568421148485 -38.0425554163316 -37.5545893582431 -37.0544836256239 -36.7842811584473 0 0 0 0 0 0 0 0 0 0 0 0 0 0 0 0 0 0 0 0 0 0 0 0 0 0 0 0 0 0 0 0 0 0 0 0 0 0 0 0 0 0 0 0 0 0 0 0 0 0 0 0 0 0 0 0 0 0 0 0 0 0 0 0 0 0 0 0 0 0 0 0 0 0 0 0 0 0 0 0 0 0 0 0 0 0 0 0 0 0 0 0 0 0 0 0 0 0 0 0 0 0 0 0 0 0 0 0 0 0 0 0 0 0 0 0 0 0 0 0 0 0 0 0 0 0 0 0 0 0 0 0 0 0 0 0 0 0 0 0 0 0 0 0 0 0 0 0 0 0 0 0 0 0 0 0 0 0 0 0 0 0 0 0 0 0 0 0 0 0 0 0 0 0 0 0 0 0 0 0 0 0 0 0 0 0 0 0 0 0 0 0 0 0 0 0 0 0 0 0 0 0 0 0 0 0 0 0 0 0 0 0 0 0 0 0 0 0 0 0 0 0 0 0 0 0 0 0 0 0 0 0 0 0 0 0 0 0 0 0 0 0 0 0 0 0 0 0 0 0 0 0 0 0 0 0 0 0 0 0 0 0 0 0 0 0 0 0 0 0 0 0 0 0 0 0 0 0 0 0 </Array>
                  </Extension>
                </PartitionFieldStats>
              </Partition>
            </Cluster>
            <Cluster name="3" size="5402">
              <Extension extender="spss" name="CustomCluster">
                <CustomCluster description="" label=""/>
              </Extension>
              <Extension extender="spss" name="Importance">
                <Array n="2" type="real">1 1 </Array>
              </Extension>
              <Partition name="3">
                <PartitionFieldStats field="x">
                  <Counts missingFreq="0" totalFreq="5402"/>
                  <NumericInfo interQuartileRange="22.8409375070908" maximum="15.5195016860962" mean="-13.602802188781" median="-12.9205338933251" minimum="-42.4512901306152" standardDeviation="14.1316452017056">
                    <Quantile quantileLimit="25" quantileValue="-25.0895122720771"/>
                    <Quantile quantileLimit="75" quantileValue="-2.2485747649863"/>
                  </NumericInfo>
                  <Extension extender="spss" name="EqualWidthBinning">
                    <Array n="400" type="int">0 0 0 0 0 0 0 0 0 0 0 0 0 0 0 0 0 0 0 0 0 0 0 0 0 0 0 0 0 0 0 0 0 0 0 0 0 0 0 0 0 0 0 0 0 0 0 0 0 0 0 0 0 0 0 0 0 0 0 0 0 0 0 0 0 0 0 0 0 0 0 0 0 0 0 0 0 0 0 0 0 0 0 0 0 0 0 0 0 0 0 0 0 0 0 0 0 0 0 0 0 0 0 0 0 0 0 0 0 0 0 0 0 0 0 0 0 5 20 26 20 17 16 16 28 35 31 38 36 34 29 38 43 26 50 35 42 41 56 50 57 61 54 38 63 62 64 51 59 61 49 73 63 66 54 17 67 70 59 63 53 44 48 64 67 63 59 59 48 51 72 53 55 60 66 81 60 74 60 65 79 61 57 71 80 65 83 40 65 60 73 61 56 55 74 74 72 51 60 60 37 43 49 60 58 64 58 44 53 46 43 36 49 60 27 33 32 29 24 30 23 13 25 31 20 17 2 12 2 0 0 0 0 0 0 0 0 0 0 0 0 0 0 0 0 0 0 0 0 0 0 0 0 0 0 0 0 0 0 0 0 0 0 0 0 0 0 0 0 0 0 0 0 0 0 0 0 0 0 0 0 0 0 0 0 0 0 0 0 0 0 0 0 0 0 0 0 0 0 0 0 0 0 0 0 0 0 0 0 0 0 0 0 0 0 0 0 0 0 0 0 0 0 0 0 0 0 0 0 0 0 0 0 0 0 0 0 0 0 0 0 0 0 0 0 0 0 0 0 0 0 0 0 0 0 0 0 0 0 0 0 0 0 0 0 0 0 0 0 0 0 0 0 0 0 0 0 0 0 0 0 0 0 0 0 0 0 0 0 0 0 0 0 0 0 0 0 0 0 0 </Array>
                    <Array n="400" type="real">0 0 0 0 0 0 0 0 0 0 0 0 0 0 0 0 0 0 0 0 0 0 0 0 0 0 0 0 0 0 0 0 0 0 0 0 0 0 0 0 0 0 0 0 0 0 0 0 0 0 0 0 0 0 0 0 0 0 0 0 0 0 0 0 0 0 0 0 0 0 0 0 0 0 0 0 0 0 0 0 0 0 0 0 0 0 0 0 0 0 0 0 0 0 0 0 0 0 0 0 0 0 0 0 0 0 0 0 0 0 0 0 0 0 0 0 0 -42.3504112243652 -42.0196876525879 -41.4908235990084 -40.9686069488525 -40.4365319644704 -40.0097377300262 -39.3963372707367 -38.916908127921 -38.376792035784 -37.8586093533424 -37.311011565359 -36.8104587131076 -36.3426237667308 -35.7715075262662 -35.2753016823216 -34.7537138295728 -34.2005690061129 -33.681003036499 -33.1197133745466 -32.6896752857027 -32.0989144022872 -31.6243656362806 -31.0663184738159 -30.5480888433624 -30.0765509683578 -29.5052245104754 -29.0055441605417 -28.4681720733643 -27.9781563666559 -27.4823290407658 -26.9531970304601 -26.3952295335673 -25.8804262192523 -25.3459766154387 -24.863548461705 -24.3080217270624 -23.8181871356386 -23.2760934123286 -22.7475178662468 -22.1809708894189 -21.7229380198887 -21.1782217187397 -20.6779235052684 -20.1382177100991 -19.6433886181224 -19.1105290651321 -18.5810876190662 -18.0707188221946 -17.5209820157006 -16.9842205694166 -16.4689704442428 -15.9690106312434 -15.4354891309551 -14.9429751237233 -14.4024787578943 -13.8776305458762 -13.3633349736532 -12.7999300089749 -12.3304673889537 -11.7668024381002 -11.2932305851498 -10.7022148132324 -10.2257299863375 -9.69826590863964 -9.20551445445076 -8.68596486877977 -8.19379172526615 -7.66586911082268 -7.1129190151508 -6.57074083764869 -6.07722904682159 -5.53654000942524 -5.0282878001531 -4.4660993667498 -4.00783424299271 -3.44675033433097 -2.87613884752447 -2.38547500081964 -1.88771566023698 -1.38270676136017 -0.829569419225057 -0.328319275255005 0.209624910339092 0.703514906200203 1.26942600621734 1.77932763342955 2.26049518187841 2.81872665471044 3.31903175637126 3.87940393234121 4.42620242725719 4.89320313255742 5.41978630812272 5.94973695000937 6.39496584733327 6.96371886194969 7.50020658969879 7.99862955234669 8.5704392230872 9.05501320958138 9.56314731466359 10.1068856716156 10.6392042160034 11.1058470269908 11.6884999642005 12.251104927063 12.7119166774134 13.2267563819885 13.7077622133143 14.2467103004456 14.764239470164 15.5079021453857 0 0 0 0 0 0 0 0 0 0 0 0 0 0 0 0 0 0 0 0 0 0 0 0 0 0 0 0 0 0 0 0 0 0 0 0 0 0 0 0 0 0 0 0 0 0 0 0 0 0 0 0 0 0 0 0 0 0 0 0 0 0 0 0 0 0 0 0 0 0 0 0 0 0 0 0 0 0 0 0 0 0 0 0 0 0 0 0 0 0 0 0 0 0 0 0 0 0 0 0 0 0 0 0 0 0 0 0 0 0 0 0 0 0 0 0 0 0 0 0 0 0 0 0 0 0 0 0 0 0 0 0 0 0 0 0 0 0 0 0 0 0 0 0 0 0 0 0 0 0 0 0 0 0 0 0 0 0 0 0 0 0 0 0 0 0 0 0 0 0 0 </Array>
                  </Extension>
                </PartitionFieldStats>
                <PartitionFieldStats field="y">
                  <Counts missingFreq="0" totalFreq="5402"/>
                  <NumericInfo interQuartileRange="15.9551390673091" maximum="39.8643226623535" mean="12.3582658769654" median="12.233476091173" minimum="-14.7230215072632" standardDeviation="10.9261109439043">
                    <Quantile quantileLimit="25" quantileValue="4.09521574589243"/>
                    <Quantile quantileLimit="75" quantileValue="20.0503548132015"/>
                  </NumericInfo>
                  <Extension extender="spss" name="EqualWidthBinning">
                    <Array n="400" type="int">0 0 0 0 0 0 0 0 0 0 0 0 0 0 0 0 0 0 0 0 0 0 0 0 0 0 0 0 0 0 0 0 0 0 0 0 0 0 0 0 0 0 0 0 0 0 0 0 0 0 0 0 0 0 0 0 0 0 0 0 0 0 0 0 0 0 0 0 0 0 0 0 0 0 0 0 0 0 0 0 0 0 0 0 0 0 0 0 0 0 0 0 0 0 0 0 0 0 0 0 0 0 0 0 0 0 0 0 0 0 0 0 0 0 0 0 0 0 0 0 0 0 0 0 0 0 0 0 0 0 0 0 0 0 0 0 0 0 0 0 0 0 0 0 0 0 0 0 0 0 0 0 0 0 0 0 0 0 0 0 0 0 0 0 0 0 1 3 5 5 4 4 3 5 9 6 7 4 14 9 17 22 24 27 17 25 31 28 31 40 58 18 26 43 51 49 53 43 67 71 59 54 87 68 59 81 83 57 68 74 74 91 76 65 68 71 94 78 77 84 84 88 74 69 68 90 91 82 89 86 92 66 82 95 77 82 79 78 84 68 67 50 79 71 55 51 56 64 57 48 65 53 50 26 41 40 47 48 41 25 18 11 36 15 32 26 23 28 37 34 18 35 19 19 21 8 24 18 6 7 1 0 10 7 1 2 0 0 0 0 0 0 0 0 0 0 0 0 0 0 0 0 0 0 0 0 0 0 0 0 0 0 0 0 0 0 0 0 0 0 0 0 0 0 0 0 0 0 0 0 0 0 0 0 0 0 0 0 0 0 0 0 0 0 0 0 0 0 0 0 0 0 0 0 0 0 0 0 0 0 0 0 0 0 0 0 0 0 0 0 0 0 0 0 0 0 0 0 0 0 0 0 0 0 0 0 0 0 0 0 0 0 0 0 0 0 0 0 0 0 </Array>
                    <Array n="400" type="real">0 0 0 0 0 0 0 0 0 0 0 0 0 0 0 0 0 0 0 0 0 0 0 0 0 0 0 0 0 0 0 0 0 0 0 0 0 0 0 0 0 0 0 0 0 0 0 0 0 0 0 0 0 0 0 0 0 0 0 0 0 0 0 0 0 0 0 0 0 0 0 0 0 0 0 0 0 0 0 0 0 0 0 0 0 0 0 0 0 0 0 0 0 0 0 0 0 0 0 0 0 0 0 0 0 0 0 0 0 0 0 0 0 0 0 0 0 0 0 0 0 0 0 0 0 0 0 0 0 0 0 0 0 0 0 0 0 0 0 0 0 0 0 0 0 0 0 0 0 0 0 0 0 0 0 0 0 0 0 0 0 0 0 0 0 0 -14.7230215072632 -14.2951272328695 -14.0534355163574 -13.475707244873 -13.1842687129974 -12.5826387405396 -12.0727767944336 -11.6716859817505 -11.2404939863417 -10.7372051874797 -10.3041737420218 -9.68033123016357 -9.35659892218453 -8.95827155643039 -8.49618002947639 -7.92221882126548 -7.54270609219869 -7.09210404643306 -6.62415423112757 -6.09654752731323 -5.72839870760518 -5.24431841714042 -4.7163761046625 -4.29330557584763 -3.82903105226056 -3.42870552010006 -2.89518322394444 -2.41606499427973 -2.05455509120343 -1.53558453005187 -1.06519862503376 -0.640750348567963 -0.146842860950352 0.293593452220232 0.766730211548886 1.21162447222957 1.7039318852041 2.15900561213493 2.63015387017848 3.11226206061281 3.54746735526855 3.97804545937923 4.46710002422333 4.90965654398944 5.39608336783744 5.84991720744542 6.34977032008924 6.7501122034513 7.24763093976413 7.70669401867289 8.14274967477677 8.62694525107359 9.0688159001338 9.52748503003802 10.0123146715618 10.4641252431003 10.9667603518512 11.3683939532957 11.8376257840325 12.3205997890896 12.7728226420644 13.2502136463072 13.6719776967938 14.1641739357349 14.6286823956863 15.0885060483759 15.5369211289941 16.0082914854351 16.466666655107 16.9153458665057 17.3801263012464 17.8650259849353 18.2737488292512 18.8143308302935 19.2527307254165 19.6962056732178 20.1513463032397 20.6147315602907 21.0908694527366 21.5284271988214 21.9825666631971 22.4598872661591 22.9151608316522 23.3964639107386 23.8499502622164 24.2991647540398 24.7590864181519 25.2059811812181 25.7207832336426 26.1326625347137 26.6222281354539 27.060905178388 27.5119815919457 27.9374256896973 28.4588204489814 28.8383927778764 29.3901290893555 29.8534152984619 30.2692610025406 30.7304361049946 31.2085771146028 31.7442932810102 32.1724648862272 32.640178456026 33.0934020148383 33.5664580208915 33.9685512341951 34.4484891389546 34.8853163946243 35.4054174423218 35.7501537005107 36.2533732520209 36.7966823577881 37.0774296351842 37.6385078430176 0 38.614514541626 38.9120995657785 39.3896179199219 39.855504989624 0 0 0 0 0 0 0 0 0 0 0 0 0 0 0 0 0 0 0 0 0 0 0 0 0 0 0 0 0 0 0 0 0 0 0 0 0 0 0 0 0 0 0 0 0 0 0 0 0 0 0 0 0 0 0 0 0 0 0 0 0 0 0 0 0 0 0 0 0 0 0 0 0 0 0 0 0 0 0 0 0 0 0 0 0 0 0 0 0 0 0 0 0 0 0 0 0 0 0 0 0 0 0 0 0 0 0 0 0 0 0 0 0 0 </Array>
                  </Extension>
                </PartitionFieldStats>
              </Partition>
            </Cluster>
            <Cluster name="4" size="5193">
              <Extension extender="spss" name="CustomCluster">
                <CustomCluster description="" label=""/>
              </Extension>
              <Extension extender="spss" name="Importance">
                <Array n="2" type="real">1 1 </Array>
              </Extension>
              <Partition name="4">
                <PartitionFieldStats field="x">
                  <Counts missingFreq="0" totalFreq="5193"/>
                  <NumericInfo interQuartileRange="16.4216202233819" maximum="-4.64091396331787" mean="-29.423857623434" median="-29.0483552228625" minimum="-55.1816673278809" standardDeviation="10.7398357788552">
                    <Quantile quantileLimit="25" quantileValue="-37.5970445299149"/>
                    <Quantile quantileLimit="75" quantileValue="-21.1754243065329"/>
                  </NumericInfo>
                  <Extension extender="spss" name="EqualWidthBinning">
                    <Array n="400" type="int">0 0 0 0 0 0 0 0 0 0 0 0 0 0 0 0 0 0 0 0 0 0 0 0 0 0 0 0 0 0 0 0 0 0 0 0 0 0 0 0 0 0 0 0 0 0 0 0 0 0 0 0 0 0 0 0 0 0 0 0 0 0 0 0 0 0 0 0 0 0 0 0 0 0 0 0 0 0 0 0 0 0 0 0 0 0 0 0 0 0 0 0 0 2 0 6 0 6 13 12 9 14 26 36 30 28 33 27 43 62 40 33 37 63 64 48 47 63 46 52 80 56 55 61 63 80 63 60 65 75 91 71 60 92 56 78 95 100 74 86 68 99 85 107 96 81 106 92 78 110 74 89 76 80 95 84 74 73 51 65 78 80 74 80 54 67 76 62 54 46 51 43 51 46 60 51 32 40 25 32 21 24 18 3 14 4 11 8 0 0 4 0 0 0 0 0 0 0 0 0 0 0 0 0 0 0 0 0 0 0 0 0 0 0 0 0 0 0 0 0 0 0 0 0 0 0 0 0 0 0 0 0 0 0 0 0 0 0 0 0 0 0 0 0 0 0 0 0 0 0 0 0 0 0 0 0 0 0 0 0 0 0 0 0 0 0 0 0 0 0 0 0 0 0 0 0 0 0 0 0 0 0 0 0 0 0 0 0 0 0 0 0 0 0 0 0 0 0 0 0 0 0 0 0 0 0 0 0 0 0 0 0 0 0 0 0 0 0 0 0 0 0 0 0 0 0 0 0 0 0 0 0 0 0 0 0 0 0 0 0 0 0 0 0 0 0 0 0 0 0 0 0 0 0 0 0 0 0 0 0 0 0 0 0 0 0 0 0 0 0 0 0 0 0 0 0 0 0 0 0 0 0 0 0 0 0 0 0 0 0 0 0 0 0 0 0 0 0 0 0 </Array>
                    <Array n="400" type="real">0 0 0 0 0 0 0 0 0 0 0 0 0 0 0 0 0 0 0 0 0 0 0 0 0 0 0 0 0 0 0 0 0 0 0 0 0 0 0 0 0 0 0 0 0 0 0 0 0 0 0 0 0 0 0 0 0 0 0 0 0 0 0 0 0 0 0 0 0 0 0 0 0 0 0 0 0 0 0 0 0 0 0 0 0 0 0 0 0 0 0 0 0 -55.1554622650146 0 -54.0607617696126 0 -52.8831049601237 -52.4311080345741 -52.0106906890869 -51.4429325527615 -50.8084962027414 -50.4192724961501 -49.8122789594862 -49.3310466766357 -48.8214904240199 -48.2810860836145 -47.7310841878255 -47.2205539969511 -46.7484865496235 -46.184605884552 -45.7109699827252 -45.2128503129289 -44.6522403293186 -44.0889194011688 -43.6294495264689 -43.0689719991481 -42.5521419464596 -42.0183948019276 -41.536808527433 -40.9476009368896 -40.4647286960057 -39.9384099786932 -39.3877751084625 -38.870730808803 -38.3963490962982 -37.8845460679796 -37.3148310343424 -36.8247281001164 -36.3089074707031 -35.7455880720537 -35.2747477679185 -34.707537206014 -34.226418826891 -33.691029208047 -33.2102626409286 -32.6436803315815 -32.1092296409607 -31.579042950192 -31.0506273535795 -30.6195039188161 -30.070402704104 -29.4770104352166 -28.9732489897826 -28.4543999036153 -27.9471261766222 -27.4491548538208 -26.9310539079749 -26.4159807303013 -25.8608296481046 -25.3533030329524 -24.8354743357455 -24.3228058313069 -23.7867156267166 -23.2688617706299 -22.7664488383702 -22.229815843943 -21.6920453424323 -21.1824310901118 -20.7000024648813 -20.1731820962368 -19.6193273305893 -19.0754759504988 -18.6093905448914 -18.0455626381768 -17.4745476281465 -17.0190974787662 -16.5025081019248 -15.9986523698877 -15.4712637818378 -14.9549624873143 -14.3658264736797 -13.8968902662689 -13.3525706996088 -12.8142640272776 -12.3294174904917 -11.7804283797741 -11.2939761161804 -10.7488798141479 -10.2760209441185 -9.80684443882534 -9.12983230749766 -8.70725107192993 -8.26227156321208 -7.72562422071184 -7.06195569038391 -6.63132923299616 -6.10614019632339 0 0 -4.70128810405731 0 0 0 0 0 0 0 0 0 0 0 0 0 0 0 0 0 0 0 0 0 0 0 0 0 0 0 0 0 0 0 0 0 0 0 0 0 0 0 0 0 0 0 0 0 0 0 0 0 0 0 0 0 0 0 0 0 0 0 0 0 0 0 0 0 0 0 0 0 0 0 0 0 0 0 0 0 0 0 0 0 0 0 0 0 0 0 0 0 0 0 0 0 0 0 0 0 0 0 0 0 0 0 0 0 0 0 0 0 0 0 0 0 0 0 0 0 0 0 0 0 0 0 0 0 0 0 0 0 0 0 0 0 0 0 0 0 0 0 0 0 0 0 0 0 0 0 0 0 0 0 0 0 0 0 0 0 0 0 0 0 0 0 0 0 0 0 0 0 0 0 0 0 0 0 0 0 0 0 0 0 0 0 0 0 0 0 0 0 0 0 0 0 0 0 0 0 0 0 0 0 0 0 0 0 0 0 0 0 </Array>
                  </Extension>
                </PartitionFieldStats>
                <PartitionFieldStats field="y">
                  <Counts missingFreq="0" totalFreq="5193"/>
                  <NumericInfo interQuartileRange="25.9028874611368" maximum="92.8469772338867" mean="64.7344470634732" median="65.2392088162169" minimum="36.6222991943359" standardDeviation="15.2773759757177">
                    <Quantile quantileLimit="25" quantileValue="51.5436457731286"/>
                    <Quantile quantileLimit="75" quantileValue="77.4465332342654"/>
                  </NumericInfo>
                  <Extension extender="spss" name="EqualWidthBinning">
                    <Array n="400" type="int">0 0 0 0 0 0 0 0 0 0 0 0 0 0 0 0 0 0 0 0 0 0 0 0 0 0 0 0 0 0 0 0 0 0 0 0 0 0 0 0 0 0 0 0 0 0 0 0 0 0 0 0 0 0 0 0 0 0 0 0 0 0 0 0 0 0 0 0 0 0 0 0 0 0 0 0 0 0 0 0 0 0 0 0 0 0 0 0 0 0 0 0 0 0 0 0 0 0 0 0 0 0 0 0 0 0 0 0 0 0 0 0 0 0 0 0 0 0 0 0 0 0 0 0 0 0 0 0 0 0 0 0 0 0 0 0 0 0 0 0 0 0 0 0 0 0 0 0 0 0 0 0 0 0 0 0 0 0 0 0 0 0 0 0 0 0 0 0 0 0 0 0 0 0 0 0 0 0 0 0 0 0 0 0 0 0 0 0 0 0 0 0 0 0 0 0 0 0 0 0 0 0 0 0 0 0 0 0 0 0 0 0 0 0 0 0 0 0 0 0 0 0 0 0 0 0 0 0 0 0 0 0 0 0 0 0 0 0 0 0 0 0 0 0 0 0 0 0 0 0 0 0 0 0 0 0 0 0 0 0 0 0 0 0 0 0 0 0 0 0 0 0 0 0 0 0 0 0 10 18 12 27 22 36 33 25 40 57 42 45 33 43 43 45 33 42 39 54 37 45 68 42 55 42 68 46 33 57 48 34 49 59 42 59 44 47 37 49 42 46 54 43 47 61 49 44 48 26 37 34 40 51 25 31 40 38 43 49 44 36 49 61 40 46 49 51 47 46 40 64 63 46 33 42 39 57 52 50 33 60 48 63 34 51 56 55 49 52 50 44 33 58 49 37 40 35 40 35 26 39 48 42 48 48 36 47 46 40 48 29 29 41 46 34 29 39 32 24 25 12 </Array>
                    <Array n="400" type="real">0 0 0 0 0 0 0 0 0 0 0 0 0 0 0 0 0 0 0 0 0 0 0 0 0 0 0 0 0 0 0 0 0 0 0 0 0 0 0 0 0 0 0 0 0 0 0 0 0 0 0 0 0 0 0 0 0 0 0 0 0 0 0 0 0 0 0 0 0 0 0 0 0 0 0 0 0 0 0 0 0 0 0 0 0 0 0 0 0 0 0 0 0 0 0 0 0 0 0 0 0 0 0 0 0 0 0 0 0 0 0 0 0 0 0 0 0 0 0 0 0 0 0 0 0 0 0 0 0 0 0 0 0 0 0 0 0 0 0 0 0 0 0 0 0 0 0 0 0 0 0 0 0 0 0 0 0 0 0 0 0 0 0 0 0 0 0 0 0 0 0 0 0 0 0 0 0 0 0 0 0 0 0 0 0 0 0 0 0 0 0 0 0 0 0 0 0 0 0 0 0 0 0 0 0 0 0 0 0 0 0 0 0 0 0 0 0 0 0 0 0 0 0 0 0 0 0 0 0 0 0 0 0 0 0 0 0 0 0 0 0 0 0 0 0 0 0 0 0 0 0 0 0 0 0 0 0 0 0 0 0 0 0 0 0 0 0 0 0 0 0 0 0 0 0 0 0 0 36.8378944396973 37.2121141221788 37.7317768732707 38.1700534114131 38.5989024422385 39.0825732549032 39.538886792732 40.0105267333984 40.4723847389221 40.919742517304 41.4300210135324 41.8771393669976 42.3117055025968 42.7914371046909 43.2367312409157 43.7124699062771 44.1799670132724 44.621451604934 45.030321659186 45.4849490412959 46.0097898534826 46.5050441318088 46.9293976952048 47.387328011649 47.8408395247026 48.3356861841111 48.8121282914106 49.2026892123015 49.6551210808031 50.1529299418131 50.5868012110392 51.0926023371079 51.5563705600038 51.9947108252574 52.4278143019903 52.9568916579424 53.4019461545077 53.8584040378002 54.2821859411291 54.7514248283542 55.2694214412144 55.714334902556 56.1211783091227 56.5949699934139 57.0930312948024 57.5377328591269 58.010370449144 58.4973326596347 58.9083462556203 59.3673722193791 59.8429997418378 60.3375045551973 60.760502910614 61.2165814568015 61.7662799072266 62.1085014343262 62.5932130813599 63.0837618175306 63.5711884609489 64.0058191260513 64.4603947726163 64.9357901679145 65.4056801309391 65.8313977601098 66.3223485946655 66.7935664964759 67.221356294593 67.7308156630572 68.1630318824281 68.5962766564411 69.0847761154175 69.5756075382233 69.9692801823692 70.4780233631963 70.92976101962 71.3900471641904 71.8534489167042 72.2959641573722 72.7728620675894 73.1632604980469 73.6909232862068 74.1738502502441 74.579869111379 75.0678281027173 75.5063139971565 76.0354838651769 76.4737340382167 76.8876315030185 77.4006224651726 77.8352405841534 78.2986915588379 78.7614437450062 79.2228906804865 79.6838453884782 80.1375427246094 80.5741632822398 81.0657331466675 81.5930099487305 82.0472061157227 82.4455847603934 82.9223946791429 83.3739447960487 83.826845963796 84.355052947998 84.7882738113403 85.2259844144185 85.6830781300863 86.1517303142142 86.5826797485352 87.0748275756836 87.5806500116984 87.9877945472454 88.4515570278825 88.9585593618998 89.3804604903511 89.8123009625603 90.2959997242895 90.7851846156976 91.2035195827484 91.6960252126058 92.1566061401367 92.6146812438965 </Array>
                  </Extension>
                </PartitionFieldStats>
              </Partition>
            </Cluster>
            <Cluster name="5" size="3910">
              <Extension extender="spss" name="CustomCluster">
                <CustomCluster description="" label=""/>
              </Extension>
              <Extension extender="spss" name="Importance">
                <Array n="2" type="real">1 1 </Array>
              </Extension>
              <Partition name="5">
                <PartitionFieldStats field="x">
                  <Counts missingFreq="0" totalFreq="3910"/>
                  <NumericInfo interQuartileRange="17.509306936287" maximum="-43.1392784118652" mean="-72.4813566885946" median="-71.6128366409893" minimum="-97.1234741210938" standardDeviation="10.9028277026704">
                    <Quantile quantileLimit="25" quantileValue="-81.349233032763"/>
                    <Quantile quantileLimit="75" quantileValue="-63.839926096476"/>
                  </NumericInfo>
                  <Extension extender="spss" name="EqualWidthBinning">
                    <Array n="400" type="int">0 0 0 0 0 0 0 0 0 0 0 0 2 8 3 1 5 8 9 20 22 31 34 21 34 34 40 25 27 31 44 36 40 41 41 60 32 45 50 74 59 58 38 48 49 34 44 44 22 63 57 65 41 46 58 46 47 46 73 70 74 71 52 73 73 80 69 85 67 52 63 56 66 62 61 57 65 85 86 83 48 68 57 46 55 50 53 40 43 45 24 21 13 27 10 4 0 4 6 0 0 5 6 5 26 10 1 4 3 2 2 0 8 4 5 2 7 0 0 0 0 0 0 0 0 0 0 0 0 0 0 0 0 0 0 0 0 0 0 0 0 0 0 0 0 0 0 0 0 0 0 0 0 0 0 0 0 0 0 0 0 0 0 0 0 0 0 0 0 0 0 0 0 0 0 0 0 0 0 0 0 0 0 0 0 0 0 0 0 0 0 0 0 0 0 0 0 0 0 0 0 0 0 0 0 0 0 0 0 0 0 0 0 0 0 0 0 0 0 0 0 0 0 0 0 0 0 0 0 0 0 0 0 0 0 0 0 0 0 0 0 0 0 0 0 0 0 0 0 0 0 0 0 0 0 0 0 0 0 0 0 0 0 0 0 0 0 0 0 0 0 0 0 0 0 0 0 0 0 0 0 0 0 0 0 0 0 0 0 0 0 0 0 0 0 0 0 0 0 0 0 0 0 0 0 0 0 0 0 0 0 0 0 0 0 0 0 0 0 0 0 0 0 0 0 0 0 0 0 0 0 0 0 0 0 0 0 0 0 0 0 0 0 0 0 0 0 0 0 0 0 0 0 0 0 0 0 0 0 0 0 0 0 0 0 0 0 0 0 0 0 0 0 0 0 0 0 0 0 0 0 0 0 0 0 0 0 0 0 0 0 0 0 0 0 0 0 0 0 0 </Array>
                    <Array n="400" type="real">0 0 0 0 0 0 0 0 0 0 0 0 -97.1058082580566 -96.7824773788452 -96.3324635823568 -95.973518371582 -95.1659484863281 -94.6702127456665 -94.1089113023546 -93.6141616821289 -93.1312619989569 -92.6117162396831 -92.1318193323472 -91.531609308152 -91.0568309110754 -90.5178828519933 -90.033207321167 -89.5174594116211 -89.0061481617115 -88.4469921973444 -87.917877890847 -87.4404930538601 -86.8290037155151 -86.44441520877 -85.7964274708818 -85.3405666351318 -84.766350030899 -84.2723051283095 -83.7212568664551 -83.256773149645 -82.7324010558048 -82.1799592642949 -81.6648914939479 -81.2076293627421 -80.6112940262775 -80.1156165179084 -79.5885025371205 -79.0622438950972 -78.4763138510964 -78.0462147546193 -77.5178126284951 -77.0325629601112 -76.4584557137838 -75.9012645223866 -75.3937538410055 -74.8765638600225 -74.3872352762425 -73.8258574112602 -73.2997799180958 -72.7866992405483 -72.2487268190126 -71.7797191781058 -71.2514585348276 -70.7237288592613 -70.1791121600425 -69.680179977417 -69.1532769686934 -68.6325044519761 -68.1324284112276 -67.5885586371789 -67.0827929784381 -66.5689187731062 -66.0437153902921 -65.5097458131852 -64.9987373977411 -64.5164828384132 -63.9063414353591 -63.3903430714327 -62.8871874254803 -62.3984941229763 -61.8313279151917 -61.3217113158282 -60.8041199801261 -60.3102708899456 -59.7142671758478 -59.2250658416748 -58.7312833678048 -58.2390756607056 -57.63026960506 -57.1587228563097 -56.6861112912496 -56.1759031386602 -55.5801438551683 -55.0322207698116 -54.4998378753662 -53.8041191101074 0 -52.9684534072876 -52.3630040486654 0 0 -50.9338752746582 -50.3754431406657 -49.6821273803711 -49.3748880533072 -48.8904392242432 -48.4548606872559 -47.7423496246338 -47.4442291259766 -46.5547103881836 -46.449743270874 0 -45.2533082962036 -44.5803642272949 -44.1008766174316 -43.432710647583 -43.2402240208217 0 0 0 0 0 0 0 0 0 0 0 0 0 0 0 0 0 0 0 0 0 0 0 0 0 0 0 0 0 0 0 0 0 0 0 0 0 0 0 0 0 0 0 0 0 0 0 0 0 0 0 0 0 0 0 0 0 0 0 0 0 0 0 0 0 0 0 0 0 0 0 0 0 0 0 0 0 0 0 0 0 0 0 0 0 0 0 0 0 0 0 0 0 0 0 0 0 0 0 0 0 0 0 0 0 0 0 0 0 0 0 0 0 0 0 0 0 0 0 0 0 0 0 0 0 0 0 0 0 0 0 0 0 0 0 0 0 0 0 0 0 0 0 0 0 0 0 0 0 0 0 0 0 0 0 0 0 0 0 0 0 0 0 0 0 0 0 0 0 0 0 0 0 0 0 0 0 0 0 0 0 0 0 0 0 0 0 0 0 0 0 0 0 0 0 0 0 0 0 0 0 0 0 0 0 0 0 0 0 0 0 0 0 0 0 0 0 0 0 0 0 0 0 0 0 0 0 0 0 0 0 0 0 0 0 0 0 0 0 0 0 0 0 0 0 0 0 0 0 0 0 0 0 0 0 0 0 0 0 0 0 0 0 0 0 0 0 0 0 0 0 0 0 0 0 0 0 0 0 0 0 0 0 </Array>
                  </Extension>
                </PartitionFieldStats>
                <PartitionFieldStats field="y">
                  <Counts missingFreq="0" totalFreq="3910"/>
                  <NumericInfo interQuartileRange="21.5243045394184" maximum="59.407787322998" mean="33.2867111247519" median="32.2983890914917" minimum="7.10079574584961" standardDeviation="13.1848778349448">
                    <Quantile quantileLimit="25" quantileValue="22.3190538225676"/>
                    <Quantile quantileLimit="75" quantileValue="43.8433583619859"/>
                  </NumericInfo>
                  <Extension extender="spss" name="EqualWidthBinning">
                    <Array n="400" type="int">0 0 0 0 0 0 0 0 0 0 0 0 0 0 0 0 0 0 0 0 0 0 0 0 0 0 0 0 0 0 0 0 0 0 0 0 0 0 0 0 0 0 0 0 0 0 0 0 0 0 0 0 0 0 0 0 0 0 0 0 0 0 0 0 0 0 0 0 0 0 0 0 0 0 0 0 0 0 0 0 0 0 0 0 0 0 0 0 0 0 0 0 0 0 0 0 0 0 0 0 0 0 0 0 0 0 0 0 0 0 0 0 0 0 0 0 0 0 0 0 0 0 0 0 0 0 0 0 0 0 0 0 0 0 0 0 0 0 0 0 0 0 0 0 0 0 0 0 0 0 0 0 0 0 0 0 0 0 0 0 0 0 0 0 0 0 0 0 0 0 0 0 0 0 0 0 0 0 0 0 0 0 0 0 0 0 0 0 0 0 0 0 0 0 0 0 0 0 0 0 0 0 0 0 0 0 0 0 0 0 0 0 0 0 6 6 7 9 4 16 20 10 6 14 18 17 42 33 37 32 33 45 32 34 38 49 37 34 32 41 49 46 60 54 44 31 35 38 43 48 34 38 39 47 54 45 39 47 38 42 37 54 38 42 56 45 49 66 56 50 61 47 28 22 23 23 20 39 45 59 39 36 39 48 30 40 54 53 34 36 44 29 37 36 36 26 32 34 39 24 36 33 51 30 22 26 40 44 39 15 25 23 30 27 35 56 19 27 24 27 29 15 17 21 43 19 3 5 0 0 0 0 0 0 0 0 0 0 0 0 0 0 0 0 0 0 0 0 0 0 0 0 0 0 0 0 0 0 0 0 0 0 0 0 0 0 0 0 0 0 0 0 0 0 0 0 0 0 0 0 0 0 0 0 0 0 0 0 0 0 0 0 0 0 0 0 0 0 0 0 </Array>
                    <Array n="400" type="real">0 0 0 0 0 0 0 0 0 0 0 0 0 0 0 0 0 0 0 0 0 0 0 0 0 0 0 0 0 0 0 0 0 0 0 0 0 0 0 0 0 0 0 0 0 0 0 0 0 0 0 0 0 0 0 0 0 0 0 0 0 0 0 0 0 0 0 0 0 0 0 0 0 0 0 0 0 0 0 0 0 0 0 0 0 0 0 0 0 0 0 0 0 0 0 0 0 0 0 0 0 0 0 0 0 0 0 0 0 0 0 0 0 0 0 0 0 0 0 0 0 0 0 0 0 0 0 0 0 0 0 0 0 0 0 0 0 0 0 0 0 0 0 0 0 0 0 0 0 0 0 0 0 0 0 0 0 0 0 0 0 0 0 0 0 0 0 0 0 0 0 0 0 0 0 0 0 0 0 0 0 0 0 0 0 0 0 0 0 0 0 0 0 0 0 0 0 0 0 0 0 0 0 0 0 0 0 0 0 0 0 0 0 0 7.33455673853556 7.75996700922648 8.16649178096226 8.61297840542263 9.23054313659668 9.5888249874115 9.95373239517212 10.4884574890137 10.8670261700948 11.4181220872062 11.8572018411424 12.3537193186143 12.7782854806809 13.2385096116499 13.6837627050039 14.1431095004082 14.6786424463445 15.0904870351156 15.5312525033951 16.0217659052681 16.4888440684268 16.9707675855987 17.3946370820741 17.8369702731862 18.3058567643166 18.7729282844357 19.2601134241844 19.6942385383274 20.1264053026835 20.6262674684878 21.0778575377031 21.5326737434633 22.0124247959682 22.4838223206369 22.8870092879894 23.3862199385961 23.81711769104 24.3074654528969 24.7423923688057 25.2245085290138 25.7100738596033 26.1515577952067 26.6513270842723 27.0481843339636 27.5950102555124 27.9849538803101 28.5054677499307 28.9558805536341 29.3966835925454 29.8792434874035 30.3220152854919 30.7411697387695 31.2246529326147 31.6869426207109 32.1519746439798 32.5898071289063 33.0935693959721 33.5202136749917 33.9655358450753 34.4714372808283 34.8758211550505 35.3296301468559 35.8223672866821 36.3499098557692 36.7919875250922 37.2130013158766 37.6933290530474 38.1132570902506 38.6008020058656 39.077174504598 39.5338888804118 39.9919442176819 40.4606938538728 40.9063848819373 41.3896938772763 41.8191516664293 42.3184426047585 42.7719235913507 43.2684050895072 43.7101362016466 44.1197956932916 44.6131701836219 45.1041598320007 45.5217351352467 46.0016691745856 46.5347644488017 46.9173226886325 47.3879521687826 47.8268876917222 48.262268447876 48.7594509124756 49.2038715069111 49.6731366157532 50.140965721824 50.5862555870643 51.0408543904622 51.5417839050293 52.0355307537576 52.448130162557 52.9501091285988 53.4015959603446 53.8375578607832 54.2840020029168 54.7168617248535 55.254244963328 55.7237647727684 56.1428736982674 56.6698315938314 57.0363942314597 57.6315694536482 57.9923110784486 58.5168627688759 58.9163970947266 59.2788116455078 0 0 0 0 0 0 0 0 0 0 0 0 0 0 0 0 0 0 0 0 0 0 0 0 0 0 0 0 0 0 0 0 0 0 0 0 0 0 0 0 0 0 0 0 0 0 0 0 0 0 0 0 0 0 0 0 0 0 0 0 0 0 0 0 0 0 0 0 0 0 0 0 </Array>
                  </Extension>
                </PartitionFieldStats>
              </Partition>
            </Cluster>
            <Cluster name="6" size="2847">
              <Extension extender="spss" name="CustomCluster">
                <CustomCluster description="" label=""/>
              </Extension>
              <Extension extender="spss" name="Importance">
                <Array n="2" type="real">1 0.805265373722956 </Array>
              </Extension>
              <Partition name="6">
                <PartitionFieldStats field="x">
                  <Counts missingFreq="0" totalFreq="2847"/>
                  <NumericInfo interQuartileRange="18.8606235128728" maximum="-58.1868286132812" mean="-85.0215246416955" median="-85.672550348802" minimum="-103.827964782715" standardDeviation="10.819620401281">
                    <Quantile quantileLimit="25" quantileValue="-94.7712392971164"/>
                    <Quantile quantileLimit="75" quantileValue="-75.9106157842435"/>
                  </NumericInfo>
                  <Extension extender="spss" name="EqualWidthBinning">
                    <Array n="400" type="int">2 0 4 15 20 19 55 37 48 52 75 69 63 58 74 44 55 61 63 44 38 31 39 53 40 45 37 41 55 49 37 34 18 22 33 33 49 31 42 48 54 40 54 69 54 38 32 7 13 25 38 21 36 38 41 41 42 49 39 28 40 35 36 34 28 28 22 14 14 18 12 10 14 25 24 21 21 12 15 4 11 8 5 0 0 0 1 3 0 0 0 0 0 0 0 0 0 0 0 0 0 0 0 0 0 0 0 0 0 0 0 0 0 0 0 0 0 0 0 0 0 0 0 0 0 0 0 0 0 0 0 0 0 0 0 0 0 0 0 0 0 0 0 0 0 0 0 0 0 0 0 0 0 0 0 0 0 0 0 0 0 0 0 0 0 0 0 0 0 0 0 0 0 0 0 0 0 0 0 0 0 0 0 0 0 0 0 0 0 0 0 0 0 0 0 0 0 0 0 0 0 0 0 0 0 0 0 0 0 0 0 0 0 0 0 0 0 0 0 0 0 0 0 0 0 0 0 0 0 0 0 0 0 0 0 0 0 0 0 0 0 0 0 0 0 0 0 0 0 0 0 0 0 0 0 0 0 0 0 0 0 0 0 0 0 0 0 0 0 0 0 0 0 0 0 0 0 0 0 0 0 0 0 0 0 0 0 0 0 0 0 0 0 0 0 0 0 0 0 0 0 0 0 0 0 0 0 0 0 0 0 0 0 0 0 0 0 0 0 0 0 0 0 0 0 0 0 0 0 0 0 0 0 0 0 0 0 0 0 0 0 0 0 0 0 0 0 0 0 0 0 0 0 0 0 0 0 0 0 0 0 0 0 0 0 0 0 0 0 0 0 0 0 0 0 0 0 0 0 0 0 0 0 0 0 0 0 0 0 0 0 0 0 0 0 0 0 0 0 0 </Array>
                    <Array n="400" type="real">-103.803901672363 0 -102.396602630615 -101.886534627279 -101.48341293335 -100.980343868858 -100.455046220259 -99.8778185457797 -99.385324160258 -98.8443069458008 -98.3330605061849 -97.8539464093637 -97.3313825092618 -96.7816531740386 -96.2385468354096 -95.7549050071023 -95.2068764426491 -94.6958469328333 -94.2074169582791 -93.7159690856934 -93.1573440150211 -92.5997978948778 -92.1024645291842 -91.5759260069649 -91.0881580352783 -90.5194986979167 -90.0164147454339 -89.4511795043945 -88.9935853437944 -88.4809114105847 -87.9624720393 -87.3926824681899 -86.9386774698893 -86.35858743841 -85.843783754291 -85.2765438195431 -84.8126631756218 -84.2151563090663 -83.8003414699009 -83.2537353833516 -82.7235861884223 -82.2291870117188 -81.6646407798485 -81.158597531526 -80.5976768776222 -80.0932548924496 -79.5968058109283 -79.1225553240095 -78.4866286057692 -77.9771206665039 -77.4485714561061 -76.9877769833519 -76.4749830034044 -75.923808449193 -75.4328144352611 -74.9027200094083 -74.3745409647624 -73.8127173598932 -73.3446273803711 -72.8246503557478 -72.2891092300415 -71.787825012207 -71.2651668124729 -70.6757197660558 -70.2140415736607 -69.6527521950858 -69.2044951698997 -68.6133144923619 -68.174072265625 -67.644467247857 -67.1224664052327 -66.5023361206055 -65.9904681614467 -65.5028167724609 -65.0066525141398 -64.47264898391 -63.9544319879441 -63.4875208536784 -62.919202931722 -62.4864225387573 -61.8641073053533 -61.2497262954712 -60.946174621582 0 0 0 -58.8236961364746 -58.2344411214193 0 0 0 0 0 0 0 0 0 0 0 0 0 0 0 0 0 0 0 0 0 0 0 0 0 0 0 0 0 0 0 0 0 0 0 0 0 0 0 0 0 0 0 0 0 0 0 0 0 0 0 0 0 0 0 0 0 0 0 0 0 0 0 0 0 0 0 0 0 0 0 0 0 0 0 0 0 0 0 0 0 0 0 0 0 0 0 0 0 0 0 0 0 0 0 0 0 0 0 0 0 0 0 0 0 0 0 0 0 0 0 0 0 0 0 0 0 0 0 0 0 0 0 0 0 0 0 0 0 0 0 0 0 0 0 0 0 0 0 0 0 0 0 0 0 0 0 0 0 0 0 0 0 0 0 0 0 0 0 0 0 0 0 0 0 0 0 0 0 0 0 0 0 0 0 0 0 0 0 0 0 0 0 0 0 0 0 0 0 0 0 0 0 0 0 0 0 0 0 0 0 0 0 0 0 0 0 0 0 0 0 0 0 0 0 0 0 0 0 0 0 0 0 0 0 0 0 0 0 0 0 0 0 0 0 0 0 0 0 0 0 0 0 0 0 0 0 0 0 0 0 0 0 0 0 0 0 0 0 0 0 0 0 0 0 0 0 0 0 0 0 0 0 0 0 0 0 0 0 0 0 0 0 0 0 0 0 0 0 0 0 0 0 0 0 0 0 0 0 0 0 0 0 0 0 0 0 0 0 0 0 0 </Array>
                  </Extension>
                </PartitionFieldStats>
                <PartitionFieldStats field="y">
                  <Counts missingFreq="0" totalFreq="2847"/>
                  <NumericInfo interQuartileRange="15.1445471734938" maximum="18.693489074707" mean="-1.70891630351262" median="-1.57600245985874" minimum="-20.3982353210449" standardDeviation="9.34187642032955">
                    <Quantile quantileLimit="25" quantileValue="-9.66029850429958"/>
                    <Quantile quantileLimit="75" quantileValue="5.48424866919424"/>
                  </NumericInfo>
                  <Extension extender="spss" name="EqualWidthBinning">
                    <Array n="400" type="int">0 0 0 0 0 0 0 0 0 0 0 0 0 0 0 0 0 0 0 0 0 0 0 0 0 0 0 0 0 0 0 0 0 0 0 0 0 0 0 0 0 0 0 0 0 0 0 0 0 0 0 0 0 0 0 0 0 0 0 0 0 0 0 0 0 0 0 0 0 0 0 0 0 0 0 0 0 0 0 0 0 0 0 0 0 0 0 0 0 0 0 0 0 0 0 0 0 0 0 0 0 0 0 0 0 0 0 0 0 0 0 0 0 0 0 0 0 0 0 0 0 0 0 0 0 0 0 0 0 0 0 0 0 0 0 0 0 0 0 0 0 0 0 0 0 0 0 0 0 0 0 0 0 0 1 5 6 3 6 17 26 17 35 28 26 29 39 51 35 37 54 36 33 50 38 59 49 36 37 40 50 56 48 28 31 39 45 34 32 30 29 40 54 51 46 43 50 75 58 41 48 36 36 33 28 38 48 72 44 42 51 52 40 22 46 23 33 42 44 23 31 25 40 31 28 24 27 14 18 10 12 9 17 21 16 22 15 3 7 3 0 0 0 0 0 0 0 0 0 0 0 0 0 0 0 0 0 0 0 0 0 0 0 0 0 0 0 0 0 0 0 0 0 0 0 0 0 0 0 0 0 0 0 0 0 0 0 0 0 0 0 0 0 0 0 0 0 0 0 0 0 0 0 0 0 0 0 0 0 0 0 0 0 0 0 0 0 0 0 0 0 0 0 0 0 0 0 0 0 0 0 0 0 0 0 0 0 0 0 0 0 0 0 0 0 0 0 0 0 0 0 0 0 0 0 0 0 0 0 0 0 0 0 0 0 0 0 0 0 0 0 0 0 0 0 0 0 0 0 0 0 0 0 0 0 0 0 0 0 0 0 0 0 0 0 0 0 0 0 0 </Array>
                    <Array n="400" type="real">0 0 0 0 0 0 0 0 0 0 0 0 0 0 0 0 0 0 0 0 0 0 0 0 0 0 0 0 0 0 0 0 0 0 0 0 0 0 0 0 0 0 0 0 0 0 0 0 0 0 0 0 0 0 0 0 0 0 0 0 0 0 0 0 0 0 0 0 0 0 0 0 0 0 0 0 0 0 0 0 0 0 0 0 0 0 0 0 0 0 0 0 0 0 0 0 0 0 0 0 0 0 0 0 0 0 0 0 0 0 0 0 0 0 0 0 0 0 0 0 0 0 0 0 0 0 0 0 0 0 0 0 0 0 0 0 0 0 0 0 0 0 0 0 0 0 0 0 0 0 0 0 0 0 -20.3982353210449 -20.0740154266357 -19.5139280954997 -19.127654393514 -18.5464919408162 -18.1486420350916 -17.6886947338398 -17.2157597261317 -16.7078963688442 -16.328344140734 -15.8104646022503 -15.3906594638167 -14.8897780638475 -14.4612723331825 -13.9727502005441 -13.4773237125294 -13.081629452882 -12.6285254425473 -12.1944597995642 -11.7361821174622 -11.2280432299564 -10.7541602829755 -10.3374453174825 -9.83871155314975 -9.39217358666497 -8.95393359661102 -8.42963563919067 -7.97253367730549 -7.55549928545952 -7.04198503494263 -6.65074462275351 -6.14234984226716 -5.68621086544461 -5.20613643702339 -4.76711745560169 -4.30986064275106 -3.83488076308678 -3.33221624493599 -2.89777712468748 -2.46807251724542 -1.95785800011262 -1.58540041779363 -1.03869483470917 -0.602232663234075 -0.173315391859746 0.311940901708312 0.753387495875359 1.19080613719092 1.693948696057 2.16712486743927 2.63830605575017 3.0966911064951 3.54537719488144 4.02473742763201 4.41586428338831 4.92636136781602 5.39712153229059 5.83888669197376 6.26721068620682 6.79776575348594 7.22563861763996 7.67938897920691 8.14366115223278 8.61914121536982 9.0842594016682 9.49218505361806 10.0153746143464 10.4503926849365 10.9503213882446 11.3673603303971 11.8725269181388 12.3148427804311 12.7146066736292 13.2194047655378 13.6879974471198 14.1950988769531 14.6073385079702 15.0887048509386 15.5772186728085 15.9443603697277 16.5031313896179 16.8949180949818 17.3832176208496 17.8524703979492 18.3624782562256 18.6244475046794 0 0 0 0 0 0 0 0 0 0 0 0 0 0 0 0 0 0 0 0 0 0 0 0 0 0 0 0 0 0 0 0 0 0 0 0 0 0 0 0 0 0 0 0 0 0 0 0 0 0 0 0 0 0 0 0 0 0 0 0 0 0 0 0 0 0 0 0 0 0 0 0 0 0 0 0 0 0 0 0 0 0 0 0 0 0 0 0 0 0 0 0 0 0 0 0 0 0 0 0 0 0 0 0 0 0 0 0 0 0 0 0 0 0 0 0 0 0 0 0 0 0 0 0 0 0 0 0 0 0 0 0 0 0 0 0 0 0 0 0 0 0 0 0 0 0 0 0 0 0 0 0 0 0 0 0 0 0 0 0 </Array>
                  </Extension>
                </PartitionFieldStats>
              </Partition>
            </Cluster>
            <Cluster name="7" size="5878">
              <Extension extender="spss" name="CustomCluster">
                <CustomCluster description="" label=""/>
              </Extension>
              <Extension extender="spss" name="Importance">
                <Array n="2" type="real">1 1 </Array>
              </Extension>
              <Partition name="7">
                <PartitionFieldStats field="x">
                  <Counts missingFreq="0" totalFreq="5878"/>
                  <NumericInfo interQuartileRange="20.4776352753656" maximum="104.745986938477" mean="75.0720700760121" median="74.9241560797359" minimum="46.6059112548828" standardDeviation="12.9219779392052">
                    <Quantile quantileLimit="25" quantileValue="64.808987251572"/>
                    <Quantile quantileLimit="75" quantileValue="85.2866225269376"/>
                  </NumericInfo>
                  <Extension extender="spss" name="EqualWidthBinning">
                    <Array n="400" type="int">0 0 0 0 0 0 0 0 0 0 0 0 0 0 0 0 0 0 0 0 0 0 0 0 0 0 0 0 0 0 0 0 0 0 0 0 0 0 0 0 0 0 0 0 0 0 0 0 0 0 0 0 0 0 0 0 0 0 0 0 0 0 0 0 0 0 0 0 0 0 0 0 0 0 0 0 0 0 0 0 0 0 0 0 0 0 0 0 0 0 0 0 0 0 0 0 0 0 0 0 0 0 0 0 0 0 0 0 0 0 0 0 0 0 0 0 0 0 0 0 0 0 0 0 0 0 0 0 0 0 0 0 0 0 0 0 0 0 0 0 0 0 0 0 0 0 0 0 0 0 0 0 0 0 0 0 0 0 0 0 0 0 0 0 0 0 0 0 0 0 0 0 0 0 0 0 0 0 0 0 0 0 0 0 0 0 0 0 0 0 0 0 0 0 0 0 0 0 0 0 0 0 0 0 0 0 0 0 0 0 0 0 0 0 0 0 0 0 0 0 0 0 0 0 0 0 0 0 0 0 0 0 0 0 0 0 0 0 0 0 0 0 0 0 0 0 0 0 0 0 0 0 0 0 0 0 0 0 0 0 0 0 0 0 0 0 0 0 0 0 0 0 0 0 0 0 0 0 0 0 0 0 0 0 0 0 0 0 1 0 6 2 8 12 16 16 21 24 34 38 39 31 41 51 45 51 55 65 34 50 58 47 49 59 49 49 79 75 74 79 61 67 56 69 64 76 44 66 89 76 75 69 65 83 77 83 88 96 86 55 85 82 86 101 64 57 60 78 66 64 96 81 72 72 46 64 79 67 78 74 80 86 98 58 91 61 58 88 75 79 53 51 52 58 58 36 64 60 60 53 62 28 22 30 31 31 21 19 10 6 18 10 13 29 12 8 11 7 9 7 </Array>
                    <Array n="400" type="real">0 0 0 0 0 0 0 0 0 0 0 0 0 0 0 0 0 0 0 0 0 0 0 0 0 0 0 0 0 0 0 0 0 0 0 0 0 0 0 0 0 0 0 0 0 0 0 0 0 0 0 0 0 0 0 0 0 0 0 0 0 0 0 0 0 0 0 0 0 0 0 0 0 0 0 0 0 0 0 0 0 0 0 0 0 0 0 0 0 0 0 0 0 0 0 0 0 0 0 0 0 0 0 0 0 0 0 0 0 0 0 0 0 0 0 0 0 0 0 0 0 0 0 0 0 0 0 0 0 0 0 0 0 0 0 0 0 0 0 0 0 0 0 0 0 0 0 0 0 0 0 0 0 0 0 0 0 0 0 0 0 0 0 0 0 0 0 0 0 0 0 0 0 0 0 0 0 0 0 0 0 0 0 0 0 0 0 0 0 0 0 0 0 0 0 0 0 0 0 0 0 0 0 0 0 0 0 0 0 0 0 0 0 0 0 0 0 0 0 0 0 0 0 0 0 0 0 0 0 0 0 0 0 0 0 0 0 0 0 0 0 0 0 0 0 0 0 0 0 0 0 0 0 0 0 0 0 0 0 0 0 0 0 0 0 0 0 0 0 0 0 0 0 0 0 0 0 0 0 0 0 0 0 0 0 0 0 0 46.6059112548828 0 47.531894048055 48.288387298584 48.6873440742493 49.1875457763672 49.7006447315216 50.3110682964325 50.830141158331 51.3001106580098 51.8091991648955 52.3346490358051 52.8619485512758 53.4083921370968 53.9379626018245 54.4507625056248 54.9210895962185 55.4739115845923 56.0049244967374 56.5001333383413 56.987585179946 57.567184677124 58.0701347877239 58.6327884755236 59.1342593601772 59.6377952058437 60.1719730143644 60.6875191513373 61.1723332465449 61.7142086791992 62.2812083476299 62.7546812129926 63.2928743831447 63.8453895227233 64.3328082220895 64.867011581642 65.3937258720398 65.9089516087582 66.3632349534468 66.9362493572813 67.465918380223 67.9694396571109 68.5027598063151 69.0260893227398 69.5648023165189 70.0779442844621 70.6040161925477 71.1414546736752 71.6275845440951 72.1464854081472 72.6742756865745 73.2117971246893 73.7278476490694 74.2399746964617 74.7619510029638 75.2601616736686 75.8309438228607 76.3391109265779 76.8668201446533 77.3814657162397 77.8788816278631 78.4354653358459 78.9351553122203 79.4284528567467 79.9794806374444 80.4747756322225 81.024192975915 81.544108748436 82.045916207229 82.5827726677282 83.0902298169258 83.6181398340174 84.1420526504517 84.7076190682345 85.1750672009526 85.6907389410611 86.2551580575796 86.7508843844054 87.3083952542009 87.8119711442427 88.3148496500651 88.8082581532152 89.3569893027252 89.8694344314874 90.4205942887526 90.93020853503 91.4092566391517 92.0238738589817 92.497901558876 93.02356300354 93.5717417399089 94.0611271408369 94.5961130203739 95.0585381644113 95.6113988702947 96.1498018900553 96.6896751157699 97.1366247361706 97.73704964774 98.2401179263466 98.6944297790527 99.2953631083171 99.8293681674533 100.433159637451 100.835122915415 101.337648589036 101.82272084554 102.440793991089 102.920958779075 103.434441702706 103.845647176107 104.538722446987 </Array>
                  </Extension>
                </PartitionFieldStats>
                <PartitionFieldStats field="y">
                  <Counts missingFreq="0" totalFreq="5878"/>
                  <NumericInfo interQuartileRange="23.2269026638059" maximum="60.6045036315918" mean="32.5647303203857" median="31.7774570913876" minimum="5.61977100372314" standardDeviation="13.9434754508491">
                    <Quantile quantileLimit="25" quantileValue="20.9500207855742"/>
                    <Quantile quantileLimit="75" quantileValue="44.1769234493801"/>
                  </NumericInfo>
                  <Extension extender="spss" name="EqualWidthBinning">
                    <Array n="400" type="int">0 0 0 0 0 0 0 0 0 0 0 0 0 0 0 0 0 0 0 0 0 0 0 0 0 0 0 0 0 0 0 0 0 0 0 0 0 0 0 0 0 0 0 0 0 0 0 0 0 0 0 0 0 0 0 0 0 0 0 0 0 0 0 0 0 0 0 0 0 0 0 0 0 0 0 0 0 0 0 0 0 0 0 0 0 0 0 0 0 0 0 0 0 0 0 0 0 0 0 0 0 0 0 0 0 0 0 0 0 0 0 0 0 0 0 0 0 0 0 0 0 0 0 0 0 0 0 0 0 0 0 0 0 0 0 0 0 0 0 0 0 0 0 0 0 0 0 0 0 0 0 0 0 0 0 0 0 0 0 0 0 0 0 0 0 0 0 0 0 0 0 0 0 0 0 0 0 0 0 0 0 0 0 0 0 0 0 0 0 0 0 0 0 0 0 0 0 0 0 0 0 0 0 0 0 0 0 0 0 0 0 2 12 10 7 23 21 34 32 25 28 40 45 43 47 68 46 60 56 66 38 56 50 42 58 59 49 53 70 53 54 84 67 59 59 69 62 64 60 64 79 72 62 60 52 52 47 72 61 67 51 63 78 76 52 62 52 68 44 62 60 48 81 39 53 51 54 64 41 64 51 53 39 57 43 40 62 62 73 47 60 57 57 54 56 44 46 70 48 54 69 59 50 50 51 44 51 54 53 66 61 38 50 34 35 29 32 44 33 32 26 27 26 20 23 32 22 22 24 24 2 0 0 0 0 0 0 0 0 0 0 0 0 0 0 0 0 0 0 0 0 0 0 0 0 0 0 0 0 0 0 0 0 0 0 0 0 0 0 0 0 0 0 0 0 0 0 0 0 0 0 0 0 0 0 0 0 0 0 0 0 0 0 0 0 0 0 0 0 0 </Array>
                    <Array n="400" type="real">0 0 0 0 0 0 0 0 0 0 0 0 0 0 0 0 0 0 0 0 0 0 0 0 0 0 0 0 0 0 0 0 0 0 0 0 0 0 0 0 0 0 0 0 0 0 0 0 0 0 0 0 0 0 0 0 0 0 0 0 0 0 0 0 0 0 0 0 0 0 0 0 0 0 0 0 0 0 0 0 0 0 0 0 0 0 0 0 0 0 0 0 0 0 0 0 0 0 0 0 0 0 0 0 0 0 0 0 0 0 0 0 0 0 0 0 0 0 0 0 0 0 0 0 0 0 0 0 0 0 0 0 0 0 0 0 0 0 0 0 0 0 0 0 0 0 0 0 0 0 0 0 0 0 0 0 0 0 0 0 0 0 0 0 0 0 0 0 0 0 0 0 0 0 0 0 0 0 0 0 0 0 0 0 0 0 0 0 0 0 0 0 0 0 0 0 0 0 0 0 0 0 0 0 0 0 0 0 0 0 0 5.69119811058044 6.39568134148916 6.83351454734802 7.24259546824864 7.7001923478168 8.18488454818726 8.58775492275463 9.16879063844681 9.44813522338867 10.0087718963623 10.4851363897324 10.9184659745958 11.3743152840193 11.8808924492369 12.2882257068858 12.7792469522227 13.2267779827118 13.6763679300036 14.1669815236872 14.617655051382 15.0854164872851 15.5482638549805 15.9954477945964 16.4819366191996 16.9087258031813 17.3902209145682 17.8467534982933 18.3067853927612 18.7493299448265 19.2115145082827 19.7023083596002 20.142953274855 20.6201925762629 21.0901464042017 21.5477028169494 22.0153969795473 22.4864863455296 22.9761339823405 23.3859365880489 23.8397890163373 24.3020661407047 24.7605493299423 25.2389225959778 25.6898421874413 26.0968171633207 26.6248398232967 27.096703476376 27.5119611396164 27.9941799391561 28.4403062334248 28.9184080759684 29.3789207996466 29.8515723630002 30.2936571928171 30.7870133000035 31.2390413284302 31.6865754688487 32.1349541490728 32.6157467749811 33.0648443857829 33.5383118788401 34.008678012424 34.4683111141889 34.9165500424943 35.3696383307962 35.8299878438314 36.2950778603554 36.7639183416599 37.2711398005486 37.6917942271513 38.1397603592783 38.5761846884703 39.0726507755748 39.5247250046841 39.9783111572266 40.4673698794457 40.9248260374992 41.3776849198015 41.8156821879935 42.3069669087728 42.7656675639905 43.2164823297869 43.6899669082076 44.1555855614798 44.6300743276423 45.1112886511761 45.5365301404681 46.0040182272593 46.4742003546821 46.9124467269234 47.3860003584522 47.8569840240479 48.2980614471436 48.7458956101361 49.235951423645 49.6992367763145 50.1554176895707 50.6004937369868 51.075730121497 51.5290852531058 51.996072769165 52.4582616424561 52.9496869479909 53.3884101867676 53.8605162521888 54.3021321296692 54.802752754905 55.2621908476858 55.6788629293442 56.168788763193 56.5874670523184 57.0474791893592 57.5473289489746 58.0205323592476 58.4511661529541 58.9608703960072 59.4014370658181 59.9021339416504 60.2914301554362 60.6041431427002 0 0 0 0 0 0 0 0 0 0 0 0 0 0 0 0 0 0 0 0 0 0 0 0 0 0 0 0 0 0 0 0 0 0 0 0 0 0 0 0 0 0 0 0 0 0 0 0 0 0 0 0 0 0 0 0 0 0 0 0 0 0 0 0 0 0 0 0 0 </Array>
                  </Extension>
                </PartitionFieldStats>
              </Partition>
            </Cluster>
            <Cluster name="8" size="5798">
              <Extension extender="spss" name="CustomCluster">
                <CustomCluster description="" label=""/>
              </Extension>
              <Extension extender="spss" name="Importance">
                <Array n="2" type="real">1 1 </Array>
              </Extension>
              <Partition name="8">
                <PartitionFieldStats field="x">
                  <Counts missingFreq="0" totalFreq="5798"/>
                  <NumericInfo interQuartileRange="19.4151092361768" maximum="48.8497428894043" mean="20.5908843825347" median="20.5582673794345" minimum="-5.8459415435791" standardDeviation="12.5301398382941">
                    <Quantile quantileLimit="25" quantileValue="10.625492848199"/>
                    <Quantile quantileLimit="75" quantileValue="30.0406020843758"/>
                  </NumericInfo>
                  <Extension extender="spss" name="EqualWidthBinning">
                    <Array n="400" type="int">0 0 0 0 0 0 0 0 0 0 0 0 0 0 0 0 0 0 0 0 0 0 0 0 0 0 0 0 0 0 0 0 0 0 0 0 0 0 0 0 0 0 0 0 0 0 0 0 0 0 0 0 0 0 0 0 0 0 0 0 0 0 0 0 0 0 0 0 0 0 0 0 0 0 0 0 0 0 0 0 0 0 0 0 0 0 0 0 0 0 0 0 0 0 0 0 0 0 0 0 0 0 0 0 0 0 0 0 0 0 0 0 0 0 0 0 0 0 0 0 0 0 0 0 0 0 0 0 0 0 0 0 0 0 0 0 0 0 0 0 0 0 0 0 0 0 0 0 0 0 0 0 0 0 0 0 0 0 0 0 0 0 0 0 0 0 0 0 0 0 0 0 0 0 0 0 0 0 0 0 0 0 0 0 0 0 0 2 8 24 9 14 17 28 24 12 24 37 30 38 32 41 40 31 47 54 73 67 64 64 52 46 76 78 58 75 80 79 83 87 92 71 80 78 97 94 66 65 86 53 57 79 78 89 67 69 70 73 76 98 88 73 73 94 72 92 78 85 60 77 70 86 94 76 88 71 53 79 74 68 63 65 46 57 54 54 39 44 36 41 59 48 66 53 38 46 48 32 35 43 38 33 30 16 17 17 25 30 10 17 10 2 3 0 0 0 0 0 0 0 0 0 0 0 0 0 0 0 0 0 0 0 0 0 0 0 0 0 0 0 0 0 0 0 0 0 0 0 0 0 0 0 0 0 0 0 0 0 0 0 0 0 0 0 0 0 0 0 0 0 0 0 0 0 0 0 0 0 0 0 0 0 0 0 0 0 0 0 0 0 0 0 0 0 0 0 0 0 0 0 0 0 0 0 0 0 0 0 0 0 0 0 0 0 0 0 0 0 0 0 </Array>
                    <Array n="400" type="real">0 0 0 0 0 0 0 0 0 0 0 0 0 0 0 0 0 0 0 0 0 0 0 0 0 0 0 0 0 0 0 0 0 0 0 0 0 0 0 0 0 0 0 0 0 0 0 0 0 0 0 0 0 0 0 0 0 0 0 0 0 0 0 0 0 0 0 0 0 0 0 0 0 0 0 0 0 0 0 0 0 0 0 0 0 0 0 0 0 0 0 0 0 0 0 0 0 0 0 0 0 0 0 0 0 0 0 0 0 0 0 0 0 0 0 0 0 0 0 0 0 0 0 0 0 0 0 0 0 0 0 0 0 0 0 0 0 0 0 0 0 0 0 0 0 0 0 0 0 0 0 0 0 0 0 0 0 0 0 0 0 0 0 0 0 0 0 0 0 0 0 0 0 0 0 0 0 0 0 0 0 0 0 0 0 0 0 -5.8331139087677 -5.48523223400116 -5.031121412913 -4.45253139071994 -3.84795987606049 -3.47046999370351 -2.90141669341496 -2.41200383504232 -1.88633397221565 -1.31133474906286 -0.832812560571207 -0.334533426165581 0.183618606190736 0.712737823836505 1.2707472836099 1.77604547739029 2.2794066936739 2.80604479160715 3.33504355836798 3.84282673548346 4.39236775440956 4.88241247087717 5.40701352059841 5.8992941562946 6.43612137048141 7.02338682350359 7.50162587410364 8.01870005706261 8.55486349741618 9.06672531366348 9.59722615495513 10.1041869657585 10.6267500581412 11.152417856714 11.6486344941905 12.1859298825264 12.7138706109463 13.2314438475776 13.737374173834 14.2644990718726 14.8166698162372 15.3145621654599 15.810219332857 16.3867945420115 16.8741081817241 17.4015443019378 17.9049385370833 18.4488148475761 18.9928001459094 19.5024760654994 20.0219515709028 20.5453854862012 21.0599504392974 21.5709406245839 22.0946445987649 22.6368999219921 23.1557616172953 23.6509446832869 24.1942440323208 24.6577682739649 25.2153093001422 25.758061726888 26.2761360515248 26.7843873432704 27.2951950694239 27.8705727394591 28.3418739720395 28.8851678154685 29.3726846130801 29.8870035567374 30.4226569887958 31.0065312772184 31.4517036886776 32.0152183714367 32.518401160607 32.9770794744077 33.5333683616237 34.0720568762885 34.6384306307192 35.1236343383789 35.6393942399458 36.2327943378025 36.7088945900522 37.2121018878484 37.7561932404836 38.2588056506533 38.7974330254321 39.2822286706222 39.800213108892 40.3533296585083 40.8144193887711 41.4211380004883 41.9152087721714 42.410439240305 42.8679891644102 43.4198121388753 44.0391402244568 44.545633652631 45.0791298361386 45.5211016845703 46.0283903757731 46.623331451416 47.1498545478372 47.5684047698975 48.0982055664062 48.6790097554525 0 0 0 0 0 0 0 0 0 0 0 0 0 0 0 0 0 0 0 0 0 0 0 0 0 0 0 0 0 0 0 0 0 0 0 0 0 0 0 0 0 0 0 0 0 0 0 0 0 0 0 0 0 0 0 0 0 0 0 0 0 0 0 0 0 0 0 0 0 0 0 0 0 0 0 0 0 0 0 0 0 0 0 0 0 0 0 0 0 0 0 0 0 0 0 0 0 0 0 0 0 0 0 0 0 0 0 </Array>
                  </Extension>
                </PartitionFieldStats>
                <PartitionFieldStats field="y">
                  <Counts missingFreq="0" totalFreq="5798"/>
                  <NumericInfo interQuartileRange="22.6121342369213" maximum="87.6841430664062" mean="59.760473288845" median="59.7347067126106" minimum="31.8971481323242" standardDeviation="13.796076546411">
                    <Quantile quantileLimit="25" quantileValue="48.4254483311971"/>
                    <Quantile quantileLimit="75" quantileValue="71.0375825681184"/>
                  </NumericInfo>
                  <Extension extender="spss" name="EqualWidthBinning">
                    <Array n="400" type="int">0 0 0 0 0 0 0 0 0 0 0 0 0 0 0 0 0 0 0 0 0 0 0 0 0 0 0 0 0 0 0 0 0 0 0 0 0 0 0 0 0 0 0 0 0 0 0 0 0 0 0 0 0 0 0 0 0 0 0 0 0 0 0 0 0 0 0 0 0 0 0 0 0 0 0 0 0 0 0 0 0 0 0 0 0 0 0 0 0 0 0 0 0 0 0 0 0 0 0 0 0 0 0 0 0 0 0 0 0 0 0 0 0 0 0 0 0 0 0 0 0 0 0 0 0 0 0 0 0 0 0 0 0 0 0 0 0 0 0 0 0 0 0 0 0 0 0 0 0 0 0 0 0 0 0 0 0 0 0 0 0 0 0 0 0 0 0 0 0 0 0 0 0 0 0 0 0 0 0 0 0 0 0 0 0 0 0 0 0 0 0 0 0 0 0 0 0 0 0 0 0 0 0 0 0 0 0 0 0 0 0 0 0 0 0 0 0 0 0 0 0 0 0 0 0 0 0 0 0 0 0 0 0 0 0 0 0 0 0 0 0 0 0 0 0 0 0 0 0 0 0 0 0 0 0 0 0 0 0 0 0 0 0 0 0 0 0 2 2 7 9 10 12 7 14 27 35 50 35 50 46 48 50 37 37 56 53 28 42 50 59 44 52 30 40 54 67 57 61 47 59 68 60 60 60 54 61 71 47 36 71 75 73 51 67 62 42 51 59 48 44 59 63 44 87 66 58 68 68 64 63 75 59 52 81 68 55 70 60 68 34 69 41 45 69 67 64 31 49 64 44 49 76 63 54 41 55 41 43 46 47 62 65 48 56 55 54 41 46 52 50 25 42 70 41 32 40 45 21 35 32 22 21 27 24 14 9 4 8 0 0 0 0 0 0 0 0 0 0 0 </Array>
                    <Array n="400" type="real">0 0 0 0 0 0 0 0 0 0 0 0 0 0 0 0 0 0 0 0 0 0 0 0 0 0 0 0 0 0 0 0 0 0 0 0 0 0 0 0 0 0 0 0 0 0 0 0 0 0 0 0 0 0 0 0 0 0 0 0 0 0 0 0 0 0 0 0 0 0 0 0 0 0 0 0 0 0 0 0 0 0 0 0 0 0 0 0 0 0 0 0 0 0 0 0 0 0 0 0 0 0 0 0 0 0 0 0 0 0 0 0 0 0 0 0 0 0 0 0 0 0 0 0 0 0 0 0 0 0 0 0 0 0 0 0 0 0 0 0 0 0 0 0 0 0 0 0 0 0 0 0 0 0 0 0 0 0 0 0 0 0 0 0 0 0 0 0 0 0 0 0 0 0 0 0 0 0 0 0 0 0 0 0 0 0 0 0 0 0 0 0 0 0 0 0 0 0 0 0 0 0 0 0 0 0 0 0 0 0 0 0 0 0 0 0 0 0 0 0 0 0 0 0 0 0 0 0 0 0 0 0 0 0 0 0 0 0 0 0 0 0 0 0 0 0 0 0 0 0 0 0 0 0 0 0 0 0 0 0 0 0 0 0 0 0 0 31.9096031188965 32.2742500305176 32.6090660095215 33.1010886298286 33.399063873291 33.9609111150106 34.4674758911133 34.9847627367292 35.4033820540817 35.9059539794922 36.3286959838867 36.7346439906529 37.2315580749512 37.7028430441151 38.1396803855896 38.6127126312256 39.0849785675874 39.4943478558515 39.9696653911046 40.4561024072035 40.8928894315447 41.3769576663063 41.8675784301758 42.32375199916 42.743521863764 43.2383279066819 43.6722031911214 44.1537666320801 44.6253744761149 45.0960907437908 45.5286372669956 46.0194865367452 46.4596820587807 46.9393512919798 47.3546366411097 47.8654775619507 48.2973627090454 48.791895421346 49.2003360324436 49.7359300206919 50.134059153812 50.5943786945749 51.1055233213637 51.5140540431923 52.0074913024902 52.4384454701045 52.9129379122865 53.4153378045381 53.8535487882553 54.3271712348575 54.8044657987707 55.2299152309612 55.6952617963155 56.1455943367698 56.6073304515774 57.0812853858584 57.5988188656894 58.0163525986945 58.4444713014545 58.8817989086283 59.3896273444681 59.8279919343836 60.3348049521446 60.8263839237274 61.2402707417806 61.6798702821893 62.1683725943932 62.6092753940158 63.0713678247788 63.5242731267756 64.0097341809954 64.4666188557943 64.9054144691019 65.4213160346536 65.8384412682575 66.2891605656321 66.7809916178385 67.2303591742032 67.6859804979011 68.1751940250397 68.5606288294638 69.0979329323282 69.519953250885 69.9941085468639 70.4478101146464 70.9294098301938 71.395271664574 71.8442395528158 72.3425670716821 72.7647824374112 73.2632129948314 73.6662099084189 74.1512822690217 74.6104275317902 75.0889365903793 75.5099638718825 76.0282227198283 76.4612556185041 76.9231199784712 77.4205272815846 77.8512824453959 78.3249199908713 78.7730002770057 79.206241607666 79.706296081543 80.1612490699405 80.6372499738421 81.0806118104516 81.5121932029724 82.0338487625122 82.4139994303385 82.980600629534 83.3486334664481 83.8001527786255 84.3615590875799 84.862433660598 85.2113935682509 85.6640227635701 86.1040425981794 86.6058052910699 87.0854511260986 87.4902439117432 0 0 0 0 0 0 0 0 0 0 0 </Array>
                  </Extension>
                </PartitionFieldStats>
              </Partition>
            </Cluster>
            <Cluster name="9" size="5164">
              <Extension extender="spss" name="CustomCluster">
                <CustomCluster description="" label=""/>
              </Extension>
              <Extension extender="spss" name="Importance">
                <Array n="2" type="real">1 0.545095734175281 </Array>
              </Extension>
              <Partition name="9">
                <PartitionFieldStats field="x">
                  <Counts missingFreq="0" totalFreq="5164"/>
                  <NumericInfo interQuartileRange="15.191234906966" maximum="60.2466011047363" mean="31.7199802306343" median="31.9914698570146" minimum="6.07471466064453" standardDeviation="10.1219303201661">
                    <Quantile quantileLimit="25" quantileValue="24.2766355127096"/>
                    <Quantile quantileLimit="75" quantileValue="39.4678704196757"/>
                  </NumericInfo>
                  <Extension extender="spss" name="EqualWidthBinning">
                    <Array n="400" type="int">0 0 0 0 0 0 0 0 0 0 0 0 0 0 0 0 0 0 0 0 0 0 0 0 0 0 0 0 0 0 0 0 0 0 0 0 0 0 0 0 0 0 0 0 0 0 0 0 0 0 0 0 0 0 0 0 0 0 0 0 0 0 0 0 0 0 0 0 0 0 0 0 0 0 0 0 0 0 0 0 0 0 0 0 0 0 0 0 0 0 0 0 0 0 0 0 0 0 0 0 0 0 0 0 0 0 0 0 0 0 0 0 0 0 0 0 0 0 0 0 0 0 0 0 0 0 0 0 0 0 0 0 0 0 0 0 0 0 0 0 0 0 0 0 0 0 0 0 0 0 0 0 0 0 0 0 0 0 0 0 0 0 0 0 0 0 0 0 0 0 0 0 0 0 0 0 0 0 0 0 0 0 0 0 0 0 0 0 0 0 0 0 0 0 0 0 0 0 0 0 0 0 0 0 0 0 0 0 0 0 3 4 8 4 4 3 5 2 9 12 24 19 35 23 22 29 33 21 49 47 47 56 54 43 56 69 55 52 70 61 68 50 67 71 68 72 68 64 100 95 63 85 90 83 83 103 98 79 77 128 109 84 104 106 98 105 80 89 101 98 69 63 79 76 99 60 84 82 77 81 87 70 76 70 54 72 66 52 33 51 41 41 21 19 4 18 16 21 8 13 15 8 3 4 3 2 5 6 1 0 0 1 2 0 6 0 0 0 0 0 0 0 0 0 0 0 0 0 0 0 0 0 0 0 0 0 0 0 0 0 0 0 0 0 0 0 0 0 0 0 0 0 0 0 0 0 0 0 0 0 0 0 0 0 0 0 0 0 0 0 0 0 0 0 0 0 0 0 0 0 0 0 0 0 0 0 0 0 0 0 0 0 0 0 0 0 0 0 0 0 </Array>
